1000 47
0 0.0013284 0.00923498 0.0101044 0.0159068 0.0169271 0.018028 0.0246887 0.0279316 0.0298741 0.038873 0.0423239 0.0488373 0.0502478 0.0622636 0.0695994 0.0757672 0.0777391 0.0792398 0.0821121 0.083524 0.0915309 0.0971772 0.099958 0.101587 0.104097 0.106069 0.109249 0.115026 0.134772 0.13644 0.140998 0.145368 0.150242 0.15709 0.15959 0.166096 0.168215 0.177187 0.181142 0.184156 0.191952 0.196622 0.198601 0.20239 0.208635 0.212821 0.243668 
1 0.000421008 0.00156201 0.0254592 0.0383839 0.0405352 0.0335319 0.0364658 0.0394799 0.0402645 0.0403625 0.0413427 0.0457527 0.554941 0.37401 0.375392 0.37675 0.378252 0.379594 0.426667 0.428082 0.429009 0.430193 0.436553 0.438399 0.439854 0.441521 0.443642 0.444633 0.450019 0.451274 0.456258 0.457518 0.460463 0.463177 0.465588 0.468492 0.471308 0.475081 0.48911 0.490421 0.496564 0.501672 0.508523 0.510457 0.512569 0.522853 0.524274 
2 0.00156783 0.00461431 0.00595131 0.0185148 0.0203544 0.0271843 0.0315912 1.30081 1.30323 0.791799 0.793937 0.802753 0.805589 0.812925 0.815163 0.817554 0.820069 0.822097 0.823778 0.826283 0.842405 0.84559 0.848428 0.851043 0.853752 0.856628 0.860882 0.864107 0.881314 0.900256 0.90791 0.910815 0.932725 0.936831 0.940539 0.948143 0.973931 0.997438 1.02092 1.02866 1.03751 1.04527 1.05845 1.07374 1.07768 1.08857 1.09125 
3 0.000491359 0.00224487 0.0265692 0.0401826 0.0425977 0.0359738 0.0393789 0.0430488 0.0440272 0.0446126 0.0458389 0.0512796 0.563094 0.381608 0.383164 0.385014 0.386797 0.388347 0.435794 0.437506 0.438571 0.440307 0.447035 0.449027 0.450754 0.452589 0.455647 0.45698 0.463644 0.465553 0.471446 0.473233 0.4765 0.479651 0.482673 0.48626 0.489284 0.494034 0.508735 0.510412 0.517595 0.523364 0.530527 0.532664 0.53503 0.546433 0.548128 
4 0.000735067 0.0031806 0.50679 0.266766 0.290696 0.174849 0.180179 0.183318 0.184802 0.135788 0.137778 0.14619 0.217157 0.208813 0.210477 0.211535 0.214436 0.223032 0.231722 0.233407 0.234664 0.236793 0.239349 0.25929 0.261105 0.262498 0.264938 0.266251 0.273703 0.275538 0.285217 0.286539 0.290368 0.293525 0.314493 0.31896 0.320663 0.326877 0.342804 0.344847 0.351708 0.396742 0.404612 0.407133 0.409487 0.413476 0.41595 
5 0.000747908 0.00381136 0.0276442 0.0441729 0.541696 0.30525 0.309399 0.312802 0.31459 0.200286 0.217256 0.226323 0.228566 0.235357 0.2365 0.238506 0.256608 0.258494 0.259854 0.261734 0.26311 0.265077 0.270423 0.272992 0.275109 0.277973 0.283191 0.285088 0.317629 0.319966 0.381575 0.383664 0.388503 0.392436 0.39591 0.401978 0.404377 0.424065 0.430887 0.437797 0.453999 0.46069 0.464012 0.466787 0.46924 0.472237 0.474655 
6 0.000533364 0.00194187 0.0260806 0.0636388 0.0662691 0.0468096 0.0504123 0.0540088 0.0551814 0.0525685 0.0537695 0.0591017 0.570051 0.48026 0.48182 0.483612 0.485584 0.487097 0.53461 0.536625 0.537954 0.539328 0.554968 0.557289 0.55947 0.561401 0.564887 0.566333 0.572618 0.574091 0.58061 0.582392 0.587468 0.590777 0.593724 0.597839 0.601187 0.606194 0.621679 0.623477 0.631319 0.637555 0.645107 0.648455 0.651365 0.662215 0.66416 
7 0.00295698 0.00447117 0.00788353 0.0142355 0.0181662 0.0241392 0.0318291 0.0363388 0.0377922 0.0470007 0.0504794 0.0641573 0.0660933 0.0783759 0.0808926 0.0825119 0.0852868 0.087912 0.0897961 0.0927294 0.0954016 0.0989076 0.1018 0.105175 0.107697 0.151674 0.157417 0.161519 0.178958 0.184348 0.202076 0.203464 0.208927 0.215176 0.220137 0.227509 0.231504 0.245133 0.260574 0.265215 0.285195 0.293537 0.297725 0.301044 0.303266 0.307519 0.313998 
8 0.0142167 0.0212813 0.0221357 0.0289736 0.0302557 0.0402118 0.0485323 0.0542416 0.0558286 0.119469 0.121947 0.131465 0.13329 0.140321 0.48689 0.489951 0.492378 0.49712 0.49898 0.501408 0.504944 0.507395 0.510751 0.513636 0.534376 0.549832 0.555603 0.573158 0.588535 0.591866 0.608214 0.610264 0.614961 0.622335 0.624267 0.641494 0.646806 0.665806 0.670702 0.677259 0.853868 0.91461 0.918359 0.921015 0.924878 0.945464 0.949212 
9 0.00147308 0.00418739 0.00539632 0.0192498 0.0208478 0.0275929 0.0314966 1.45409 1.45622 0.97591 0.977792 0.985703 0.988198 0.995449 0.998296 1.00022 1.00244 1.00526 1.00701 1.0093 1.02414 1.0268 1.03008 1.03268 1.03506 1.03774 1.04122 1.04413 1.06309 1.08007 1.08654 1.08893 1.10918 1.11347 1.11763 1.12868 1.15468 1.17583 1.19674 1.20371 1.21179 1.21875 1.23081 1.24497 1.24872 1.25839 1.26085 
10 0.000898653 0.00342854 0.502109 0.261998 0.285964 0.17198 0.178061 0.181339 0.182877 0.135022 0.137258 0.146647 0.171007 0.171883 0.173559 0.174658 0.178371 0.187069 0.19163 0.19342 0.194906 0.197309 0.199596 0.219536 0.221474 0.223 0.22594 0.227699 0.235916 0.238059 0.250874 0.252219 0.256369 0.259792 0.280876 0.2863 0.288213 0.295488 0.311125 0.31353 0.321765 0.366818 0.37437 0.377088 0.379468 0.382908 0.385807 
11 0.000756308 0.00351173 0.0273449 0.0445441 0.54428 0.303457 0.307741 0.311011 0.312767 0.200856 0.217769 0.230067 0.232222 0.239421 0.240812 0.242521 0.260625 0.26248 0.263941 0.265842 0.267239 0.26894 0.274435 0.277072 0.27911 0.28411 0.288889 0.290724 0.324936 0.326965 0.498278 0.500102 0.505062 0.509011 0.512132 0.518618 0.521108 0.541424 0.549315 0.556431 0.575229 0.583972 0.588212 0.591048 0.593601 0.596722 0.599134 
12 0 0 0 0 0 0 0 0 0 0 0 0 0 0 0 0 0 0 0 0 0 0 0 0 1 0 0 0 0 0 0 0 0 0 0 0 0 0 0 0 0 0 0 0 0 0 0 
13 0.000605312 0.0179939 0.0191337 0.0275007 0.0282974 0.03351 2.47547 2.47783 2.47954 1.3627 1.36444 1.36985 1.37062 1.37323 1.37576 1.37719 1.37872 1.37973 1.38057 1.38153 1.38288 1.3839 1.38697 1.43672 1.45812 1.45923 1.46068 1.46279 1.46779 1.46965 1.47472 1.48474 1.48844 1.49084 1.4931 1.49638 1.4985 1.51309 1.51632 1.52139 1.52746 1.57023 1.70812 1.71023 1.72476 1.73139 1.73788 
14 0.000543703 0.00196149 0.0261085 0.0430332 0.0453574 0.0398242 0.0443798 0.0485258 0.0494799 0.0521871 0.053446 0.05888 0.571092 0.481406 0.48375 0.485754 0.487571 0.489225 0.536791 0.538685 0.53996 0.541476 0.549055 0.551261 0.553097 0.555183 0.557682 0.5589 0.567269 0.568878 0.575377 0.57706 0.580823 0.585074 0.587733 0.591459 0.595138 0.599974 0.614929 0.616598 0.624671 0.631091 0.638423 0.640902 0.644144 0.662465 0.664275 
15 0.00168524 0.00530244 0.00700764 0.0149857 0.0167488 0.0241878 0.0290091 0.0358354 0.0519606 0.0817018 0.084878 0.0936182 0.0960621 1.2942 1.29715 1.30368 1.30591 1.30773 1.31046 1.31332 1.3275 1.33025 1.33274 1.33537 1.3371 1.35633 1.35958 1.36264 1.40197 1.40499 1.41586 1.42145 1.42709 1.43221 1.43469 1.44732 1.4633 1.48416 1.50249 1.50958 1.51968 1.52518 1.53202 1.53561 1.54363 1.55126 1.55576 
16 0.00107483 0.00419628 0.00793983 0.0239794 0.0403516 0.0490388 0.0605755 0.0657356 0.0683047 0.0853891 0.0876776 0.129735 0.13146 0.138627 0.145162 0.146901 0.149815 0.151808 0.154722 0.157622 0.159556 0.161964 0.167525 0.169773 0.172784 0.197088 0.201726 0.204096 0.231179 0.235079 1.53944 1.54159 1.5468 1.55121 1.55397 1.56549 1.56833 1.58384 1.59966 1.60498 1.6474 1.76031 1.77016 1.77338 1.77671 1.78477 1.78781 
17 0.00119091 0.00472825 0.00760194 0.0229184 0.0406979 0.0514871 0.0597914 0.0658927 0.067757 0.0886185 0.0912001 0.143483 0.145708 0.153988 0.163044 0.165374 0.168677 0.171014 0.174284 0.177861 0.180162 0.183056 0.188909 0.191443 0.194193 0.22095 0.225803 0.2286 0.265257 0.268888 1.40867 1.41127 1.41651 1.42219 1.42517 1.43945 1.44324 1.46075 1.47774 1.48377 1.53163 1.56981 1.58032 1.58349 1.5878 1.60327 1.60672 
18 0.00134262 0.00518735 0.00620074 0.0192387 0.0204009 0.0286124 0.0380562 0.0441027 0.0454924 0.0680191 0.0700686 0.144637 0.14632 0.152024 0.162036 0.163645 0.166406 0.167948 0.170158 0.171977 0.181865 0.185688 0.1893 0.191377 0.219043 0.222289 0.249653 0.689859 0.713391 0.716905 0.723486 0.725425 0.729477 0.732796 0.737916 0.743155 0.75845 0.768375 0.773523 0.777296 0.786402 0.794316 0.796847 0.799436 0.802337 0.805539 0.822626 
19 0.000979885 0.00372864 0.502353 0.262349 0.286069 0.172011 0.177432 0.180769 0.182335 0.138394 0.140457 0.151623 0.176207 0.179586 0.18131 0.182441 0.185797 0.194448 0.201615 0.203535 0.205202 0.208421 0.210772 0.230879 0.232733 0.234167 0.237326 0.238887 0.24709 0.248986 0.259147 0.260503 0.264741 0.268273 0.289164 0.294529 0.296303 0.303449 0.318953 0.3213 0.32868 0.373631 0.381308 0.384123 0.386522 0.390026 0.39317 
20 0.000808073 0.0514024 0.0527159 0.0496119 0.0506124 0.0534657 2.51646 2.51921 2.52104 1.40015 1.40222 1.40876 1.40965 1.41273 1.41549 1.41723 1.42009 1.42169 1.42291 1.42417 1.42564 1.42689 1.43014 1.48057 1.50229 1.50355 1.50537 1.50768 1.5135 1.51558 1.52179 1.53042 1.53482 1.53809 1.54195 1.5464 1.54854 1.56814 1.57183 1.57859 1.58582 1.62949 1.67631 1.67878 1.69134 1.69833 1.70525 
21 0.49238 0.2703 0.271617 0.16277 0.163838 0.105888 0.109585 0.117669 0.135325 0.121026 0.124893 0.134895 0.135809 0.141656 0.159389 0.160807 0.162307 0.164108 0.167416 0.168536 0.170122 0.188553 0.190075 0.191974 0.194601 0.196898 0.201589 0.204135 0.211407 0.232617 0.23738 0.238976 0.244828 0.247749 0.251112 0.256085 0.259043 0.270506 0.275105 0.277947 0.285494 0.305444 0.352594 0.354919 0.357612 0.361763 0.364404 
22 0.000805948 0.0471858 0.0484412 0.0592952 0.062468 1.61122 1.62675 1.62927 1.63028 0.893005 0.894507 0.902047 0.903215 0.906542 0.907848 0.909554 0.913238 0.91578 0.918832 0.920535 0.921797 0.923277 0.928365 0.930645 0.93205 0.933193 0.938002 0.939512 0.945627 0.947127 1.0945 1.09585 1.09985 1.10371 1.10744 1.11276 1.11462 1.13638 1.14032 1.14947 1.2114 1.21487 1.21687 1.21902 1.22076 1.22307 1.22545 
23 0.447679 0.292488 0.29352 0.180342 0.181235 0.117017 0.120978 0.129811 0.149512 0.133599 0.138273 0.148556 0.149408 0.155058 0.174439 0.176387 0.177915 0.180232 0.183835 0.184984 0.186645 0.206915 0.208465 0.210467 0.213573 0.215907 0.220554 0.222969 0.230218 0.253129 0.257845 0.259763 0.266312 0.269692 0.27256 0.27819 0.281538 0.298195 0.302628 0.306176 0.313415 0.334645 0.386206 0.388813 0.392041 0.396447 0.398996 
24 0.49716 0.274818 0.275761 0.16572 0.166609 0.108114 0.111718 0.119297 0.169399 0.146512 0.150672 0.160144 0.160938 0.170248 0.188406 0.189912 0.191316 0.193415 0.196667 0.197718 0.199324 0.217698 0.219253 0.221076 0.223654 0.225846 0.230027 0.232243 0.241375 0.260155 0.264321 0.267098 0.273854 0.277249 0.279798 0.284569 0.287467 0.299647 0.304277 0.307247 0.314093 0.335129 0.38306 0.386119 0.390964 0.394902 0.397707 
25 0.00146496 0.0347445 0.0370688 0.0343796 0.0370202 0.0391058 0.0465673 0.0525209 0.0544855 0.0750679 0.0773911 1.10421 1.10637 1.11274 1.11558 1.11814 1.1227 1.12451 1.13239 1.13569 1.13846 1.17465 1.17767 1.18058 1.18404 1.18727 1.19247 1.21397 1.23901 1.24153 1.27795 1.27985 1.28694 1.29179 1.30706 1.3148 1.31798 1.3626 1.38749 1.40286 1.41469 1.44579 1.45632 1.46025 1.46313 1.46835 1.47341 
26 0.00066213 0.0173848 0.0184689 0.0350351 0.0379984 1.57518 1.58222 1.5844 1.58525 0.851509 0.852757 0.85931 0.860342 0.863212 0.864294 0.865719 0.867931 0.869924 0.872539 0.87397 0.875027 0.876292 0.881126 0.882998 0.884188 0.885196 0.889578 0.890881 0.896115 0.897401 1.31511 1.31619 1.31968 1.32271 1.3249 1.32901 1.3307 1.34934 1.35281 1.36088 1.42095 1.4238 1.42542 1.42729 1.42866 1.43059 1.43255 
27 0.00144893 0.00402417 0.00541133 0.0171554 0.0193281 0.0259654 0.0298099 1.47401 1.4763 0.848913 0.850904 0.860439 0.863126 0.870714 0.872613 0.87446 0.87735 0.879137 0.880795 0.883362 0.897885 0.900636 0.90317 0.905529 0.908422 0.911639 0.914852 0.917607 0.930298 0.947091 0.954702 0.957161 0.97743 0.98132 0.984936 0.992094 1.01549 1.03682 1.07655 1.08353 1.0911 1.09833 1.1231 1.13719 1.14095 1.14929 1.15193 
28 0.000813002 0.00336853 0.502546 0.262417 0.286712 0.171841 0.177333 0.182109 0.18388 0.135821 0.137989 0.14853 0.173099 0.174278 0.175947 0.177039 0.180923 0.18957 0.194309 0.196423 0.197793 0.200188 0.20249 0.222349 0.224729 0.226789 0.229319 0.230749 0.238517 0.240588 0.251806 0.253357 0.257755 0.261393 0.282828 0.287947 0.289822 0.296846 0.334066 0.336369 0.343427 0.388658 0.407172 0.410043 0.412712 0.416209 0.419504 
29 0.00163769 0.00399806 0.00625237 0.0156917 0.0172726 0.0245182 0.0284644 0.208159 0.210085 0.25001 0.252004 0.259884 0.261134 0.290593 0.292823 0.294614 0.296303 0.298708 0.300017 0.30921 0.313267 0.32528 0.32855 0.34793 0.350283 0.352724 0.357066 0.372666 0.401055 0.404783 0.410712 0.418149 0.432098 0.436626 0.439826 0.44774 0.916827 0.931479 0.942241 0.945224 0.97817 0.982391 0.987795 0.999645 1.01045 1.01686 1.01913 
30 0.00246051 0.00450495 0.00644968 0.02174 0.024276 0.026598 0.0331754 0.0550871 0.0628686 0.0758667 0.0828513 0.094143 0.0961271 0.103944 0.105687 0.107761 0.116374 0.118217 0.121431 0.125164 0.127535 0.129768 0.135935 0.144389 0.147756 0.150431 0.154299 0.156479 0.174069 0.176504 0.18495 0.189695 0.546128 0.553309 0.562961 0.574269 0.582992 0.599123 0.633792 0.639056 0.650939 0.665907 0.682663 0.919793 0.926499 0.932547 0.937202 
31 0.00201609 0.0090115 0.0183243 0.0246142 0.0263404 0.0290314 0.0340457 0.0391542 0.0469035 0.103283 0.109233 0.119314 0.121792 0.128483 0.130305 0.132173 0.134964 0.27572 0.280671 0.282831 0.290793 0.292976 0.295343 0.30376 0.305811 0.307531 0.310896 0.313296 0.333796 0.335749 0.342234 0.344404 0.349136 0.362746 0.382404 0.397164 0.40047 0.413521 0.420847 0.424003 0.43369 0.439456 0.443061 0.446175 0.460405 0.482628 0.4909 
32 0.00140724 0.0127755 0.0231976 0.035834 0.0376312 0.0413548 0.0501387 0.0546562 0.0570778 0.0989487 0.101365 0.138618 0.14025 0.144239 0.145534 0.147376 0.150103 0.159674 0.161377 0.172647 0.17642 0.179171 0.182569 0.18484 0.187383 0.189921 0.193191 0.19776 0.219255 0.221658 0.228067 0.234875 0.248165 0.25251 0.698659 0.705829 0.709302 0.720118 0.726341 0.729583 0.737705 0.744504 0.747506 0.756988 0.767068 0.770654 0.789447 
33 0.493279 0.270975 0.271841 0.162467 0.163278 0.104889 0.108012 0.117015 0.134635 0.120846 0.124104 0.133975 0.134773 0.139918 0.157657 0.159462 0.16105 0.162758 0.166065 0.16713 0.169417 0.187858 0.189201 0.190981 0.193748 0.196306 0.200608 0.203331 0.210476 0.231429 0.235576 0.23716 0.243215 0.246133 0.24851 0.253918 0.256932 0.270864 0.275127 0.27806 0.285138 0.302846 0.350135 0.352579 0.355255 0.359468 0.361928 
34 0.00169394 0.00495726 0.00588396 0.017237 0.0184558 0.0257951 0.0314456 0.0358936 0.0377366 0.0567369 0.0591024 0.0657571 0.0674547 0.0761849 0.0787525 0.492642 0.495195 0.496821 0.498774 0.515495 0.518694 0.520718 0.525347 0.527434 0.529319 0.531556 0.535136 0.537654 0.549535 0.551437 0.557427 0.566515 0.571274 0.589727 0.592529 0.598778 0.602641 0.625113 0.630295 0.635882 0.647514 0.652218 0.654808 0.658885 0.671908 0.688407 0.691476 
35 0.00223455 0.00496276 0.0084856 0.0170871 0.0236526 0.0231216 0.0282983 0.0512324 0.0550939 0.0608 0.0652757 0.0896223 0.0947537 0.105755 0.107457 0.109561 0.11808 0.120911 0.12425 0.129407 0.13138 0.135509 0.139169 0.141168 0.148197 0.15769 0.160606 0.162705 0.171942 0.175503 0.199371 0.203089 0.211659 0.219139 0.226657 0.237155 0.242341 0.2612 0.444165 0.449519 0.458028 0.471676 0.566951 0.572301 0.57786 0.583011 0.588231 
36 0.000875306 0.00352608 0.0274979 0.0443664 0.541424 0.300377 0.304882 0.308087 0.309826 0.197586 0.214575 0.224003 0.226215 0.23371 0.23486 0.236652 0.254722 0.256676 0.258088 0.259976 0.261509 0.263374 0.268847 0.271631 0.273703 0.276627 0.281664 0.283721 0.316406 0.318515 0.379925 0.381697 0.386818 0.391305 0.39462 0.400811 0.40437 0.424986 0.43155 0.438784 0.455661 0.462331 0.465351 0.468303 0.470784 0.473584 0.476252 
37 0.00116547 0.00349489 0.00534805 0.189779 0.19404 0.0853429 0.0938307 0.0993794 0.103123 0.0836332 0.0858201 0.0952832 0.101056 0.105429 0.107283 0.111287 0.115795 0.117846 0.121442 0.128266 0.132461 0.134592 0.212553 0.218037 0.226467 0.22944 0.244728 0.249459 0.258705 0.26097 0.278867 0.284182 0.296829 0.302896 0.308352 0.32155 0.326641 0.340148 0.349864 0.355216 0.376001 0.386494 0.391076 0.399798 0.408119 0.413554 0.43293 
38 0 0 0 0 0 0 0 0 0 0 0 0 0 0 0 0 0 0 0 0 0 0 0 0 0 0 0 0 0 0 0 0 0 0 0 0 0 0 0 0 0 0 0 0 1 0 0 
39 0.000778345 0.00354058 0.0272902 0.0589893 0.557184 0.313648 0.318049 0.32128 0.323276 0.205581 0.222475 0.231403 0.233877 0.240789 0.241979 0.243917 0.262173 0.264016 0.265534 0.26777 0.269342 0.270995 0.283198 0.286114 0.288693 0.291598 0.297351 0.299454 0.331756 0.333712 0.39604 0.39815 0.403767 0.407889 0.411287 0.417892 0.420586 0.440547 0.44693 0.453997 0.470913 0.478078 0.481179 0.4845 0.487484 0.490424 0.49304 
40 0.00204178 0.0143415 0.0168145 0.0349253 0.0533458 0.0656093 0.072501 0.07756 0.0796676 0.0956755 0.0985727 0.108184 0.109729 0.11496 0.117004 0.120578 0.433222 0.435844 0.439473 0.441837 0.444074 0.447554 0.453046 0.458779 0.46087 0.464032 0.491655 0.495135 0.508978 0.511606 0.522749 0.525167 0.544675 0.576321 0.580136 0.602875 0.605481 0.635489 0.648377 0.658108 0.78384 0.788773 0.794912 0.806271 0.809881 0.816741 0.824165 
41 0.00169385 0.00394461 0.0066127 0.017117 0.0199921 0.0255158 0.0297006 0.0642636 0.0661179 0.157167 0.159346 0.167475 0.168756 0.205007 0.207124 0.20897 0.210835 0.2134 0.214823 0.224025 0.226832 0.238652 0.242704 0.269365 0.271615 0.274122 0.278736 0.290615 0.318624 0.32103 0.327816 0.333529 0.345671 0.35083 0.354258 0.362688 0.821768 0.83642 0.846026 0.849144 0.881829 0.886153 0.890562 0.900996 0.909388 0.915219 0.917875 
42 0.000541062 0.00197317 0.0260543 0.0421276 0.0444293 0.039352 0.0436818 0.047684 0.0486184 0.0518369 0.0531106 0.0586283 0.569403 0.480021 0.482379 0.484426 0.48625 0.487933 0.535424 0.537321 0.538562 0.540048 0.547173 0.549416 0.551234 0.553264 0.555743 0.556945 0.565002 0.566579 0.573283 0.574913 0.578649 0.582635 0.585269 0.588952 0.594616 0.599403 0.614237 0.615887 0.626446 0.632871 0.64014 0.642607 0.645692 0.665462 0.667233 
43 0.0015844 0.332187 0.334239 0.234129 0.236471 0.224388 0.302422 0.306788 0.308659 0.308794 0.311657 0.322478 0.324181 0.329033 0.331433 0.334772 0.350968 0.357795 0.362025 0.365134 0.367331 0.369934 0.372538 0.37665 0.379047 0.380578 0.385697 0.388126 0.39864 0.401572 0.415019 0.418304 0.423779 0.434532 0.451901 0.465356 0.467252 0.500983 0.506481 0.518105 0.534034 0.54078 0.544807 0.547839 0.551924 0.556421 0.561002 
44 0.00165164 0.0115809 0.0198572 0.0249017 0.0266139 0.0286888 0.0338656 0.0426324 0.0479519 0.22383 0.230782 0.237383 0.239183 0.245443 0.248233 0.249878 0.25209 0.379302 0.381277 0.383072 0.388275 0.390218 0.392344 0.39815 0.400152 0.402025 0.404638 0.406747 0.434509 0.436335 0.442046 0.444027 0.447939 0.459525 0.474328 0.493359 0.499181 0.50944 0.516349 0.51884 0.52718 0.532159 0.535576 0.538173 0.55124 0.566664 0.574164 
45 0.000782505 0.0189605 0.0202616 0.0297442 0.031062 0.0376602 2.49133 2.49504 2.49718 1.37812 1.38061 1.38943 1.39034 1.39437 1.39735 1.39977 1.40194 1.40316 1.40432 1.40587 1.40746 1.40875 1.41224 1.46291 1.48463 1.48622 1.48808 1.49045 1.49739 1.49971 1.50644 1.51684 1.52411 1.52724 1.52984 1.5347 1.53715 1.57773 1.58201 1.59647 1.60503 1.64862 1.68718 1.69091 1.70598 1.71312 1.7203 
46 0.00309835 0.00683994 0.00803464 0.0264294 0.0278774 0.0350769 0.100698 0.107326 0.109701 0.147457 0.159854 0.169865 0.171111 0.177762 0.225414 0.227133 0.228822 0.230527 0.231868 0.233375 0.235822 0.237893 0.243875 0.246504 0.698104 0.701674 0.706664 0.738955 0.748771 0.76202 0.768655 0.770814 0.777456 0.780561 0.782912 0.789491 0.792548 0.802135 0.806447 0.809321 0.821879 0.858813 0.862211 0.865634 0.869028 0.876925 0.88743 
47 0.0017387 0.0041413 0.00565416 0.015405 0.0169348 0.0195305 0.037674 0.0417311 0.0466194 0.0564004 0.0585127 0.0679535 0.0695876 0.0750493 0.0765949 0.0786671 0.0846058 0.0893892 0.0926654 0.0946333 0.102146 0.105809 0.109347 0.112162 0.120159 0.126129 0.130015 0.136919 0.147133 0.149554 0.156817 0.159971 0.166394 0.189326 0.198072 0.208171 0.210495 0.226668 0.23766 0.242852 0.254824 0.25927 0.264907 0.269188 0.274196 0.277986 0.409004 
48 0.0023208 0.391403 0.393262 0.21951 0.221462 0.188939 0.27319 0.276668 0.278558 0.279455 0.282027 0.291674 0.293005 0.297512 0.299667 0.303004 0.31803 0.324714 0.328607 0.331507 0.33354 0.335671 0.337944 0.342486 0.344636 0.346034 0.350155 0.352937 0.364059 0.366192 0.376692 0.379671 0.384955 0.409925 0.428475 0.440288 0.44215 0.470851 0.47618 0.485948 0.502432 0.508621 0.512644 0.515692 0.5199 0.52372 0.527999 
49 0.000543118 0.00197705 0.0263027 0.0423789 0.0452497 0.0397313 0.0431117 0.0480939 0.0492519 0.0501611 0.0515027 0.0586324 0.569398 0.480485 0.482042 0.483581 0.486143 0.487723 0.535202 0.537217 0.538335 0.539927 0.54665 0.548688 0.550864 0.554292 0.556716 0.557923 0.564315 0.565979 0.573196 0.574857 0.578673 0.582153 0.585376 0.589303 0.59268 0.597683 0.633406 0.635119 0.64211 0.64815 0.665749 0.668229 0.670924 0.681766 0.683718 
50 0.000860514 0.0187548 0.0211075 0.0308247 0.0318389 0.0374811 2.49675 2.49989 2.50267 1.38411 1.38622 1.39502 1.39596 1.39908 1.40388 1.40553 1.40726 1.40844 1.40946 1.4106 1.41206 1.41332 1.41678 1.46709 1.48966 1.49093 1.49273 1.49507 1.50088 1.50376 1.51218 1.52244 1.52749 1.53022 1.53287 1.53704 1.5394 1.55693 1.56114 1.56716 1.57401 1.69752 1.74454 1.74753 1.76243 1.76974 1.77562 
51 0.00082481 0.0179097 0.0191362 0.0367841 0.0399536 1.58875 1.59623 1.59879 1.59975 0.865537 0.866969 0.874606 0.875799 0.87916 0.881071 0.882708 0.885189 0.889216 0.892331 0.893977 0.895224 0.896731 0.902018 0.904857 0.906219 0.907555 0.913979 0.915577 0.922752 0.924239 1.07314 1.07438 1.07841 1.08332 1.0857 1.09132 1.09413 1.11453 1.11849 1.12722 1.29452 1.29789 1.29974 1.3019 1.30352 1.30614 1.30837 
52 0.494492 0.2724 0.273333 0.163794 0.164592 0.105892 0.109517 0.117571 0.135681 0.121236 0.125547 0.134153 0.134916 0.140021 0.157794 0.159589 0.160952 0.163036 0.166041 0.167066 0.168565 0.187198 0.188595 0.190395 0.193272 0.195391 0.199614 0.201817 0.208369 0.229378 0.233404 0.23517 0.241031 0.244075 0.246737 0.2518 0.254901 0.268937 0.272963 0.275886 0.282399 0.302024 0.349315 0.351634 0.354601 0.358615 0.360913 
53 0.0195985 0.0255558 0.0288212 0.0351687 0.0374525 0.0434161 0.0474687 0.0551495 0.057888 0.080602 0.0833053 0.0928447 0.0944647 0.104086 0.106307 0.107992 0.111605 0.11342 0.118527 0.120532 0.122917 0.535455 0.53775 0.555102 0.557241 0.56033 0.591656 0.594485 0.605468 0.618874 0.62575 0.627493 0.633261 0.637472 0.639841 0.653748 0.667944 0.677721 0.690112 0.693562 0.705456 0.711064 0.718754 0.721761 0.724562 0.731175 0.739527 
54 0.00251974 0.00738318 0.0096574 0.0203617 0.036512 0.0495821 0.0600708 0.0667076 0.0826364 0.110577 0.39801 0.410378 0.41187 0.495851 0.49857 0.50215 0.505851 0.513066 0.514932 0.517713 0.520507 0.52374 0.526821 0.530024 0.544117 0.546806 0.551275 0.55432 0.582459 0.586285 0.598245 0.606436 0.627938 0.633946 0.637828 0.665211 0.668973 0.723994 0.735687 0.75379 0.767977 0.776259 0.782106 0.795153 0.807475 0.814162 0.818943 
55 0.00214933 0.00850004 0.0189818 0.0314027 0.0334365 0.03686 0.101132 0.109335 0.121788 0.136614 0.139141 0.28798 0.289729 0.294537 0.321787 0.323366 0.325333 0.326896 0.329153 0.330837 0.332417 0.33761 0.341221 0.344234 0.353876 0.356102 0.359798 0.364368 0.373874 0.385281 0.426967 0.428976 0.441295 0.444457 0.448824 0.456632 0.458947 0.470331 0.482718 0.486237 0.493352 1.41378 1.42097 1.42964 1.43288 1.4404 1.44299 
56 0.000757461 0.0033221 0.506893 0.266924 0.336102 0.202851 0.208252 0.211364 0.212922 0.15195 0.155373 0.164117 0.18859 0.18909 0.190719 0.191794 0.196182 0.204807 0.209292 0.210993 0.212277 0.214431 0.216862 0.236857 0.238703 0.240188 0.242833 0.244203 0.254031 0.25591 0.270642 0.271996 0.275967 0.279197 0.300204 0.304892 0.306539 0.314113 0.329258 0.331779 0.339454 0.384565 0.392052 0.394631 0.396995 0.400261 0.402798 
57 0.492275 0.270369 0.271421 0.163002 0.163835 0.105665 0.108807 0.116927 0.134491 0.12095 0.123967 0.143671 0.144799 0.150255 0.167972 0.169425 0.171236 0.17288 0.180829 0.182097 0.183944 0.202263 0.204042 0.206062 0.208557 0.210728 0.215652 0.218027 0.225046 0.245944 0.250465 0.252032 0.257959 0.260966 0.263238 0.268389 0.271078 0.282395 0.286848 0.289626 0.296673 0.314666 0.361935 0.364353 0.367004 0.371206 0.37412 
58 0.00134843 0.0039921 0.0051316 0.0165917 0.0181818 0.0259945 0.0300973 1.4514 1.45343 0.853055 0.854893 0.863003 0.867992 0.877806 0.879954 0.88198 0.884247 0.886378 0.888247 0.890518 0.933558 0.9361 0.938748 0.941155 0.943526 0.946132 0.949372 0.95329 0.96828 0.982538 0.989185 0.992399 1.0098 1.01353 1.01665 1.02451 1.04834 1.06974 1.09252 1.0995 1.10751 1.11388 1.12688 1.13896 1.14407 1.15337 1.15652 
59 0.00336914 0.00740829 0.00863685 0.0272569 0.030742 0.12659 0.129847 0.136387 0.137956 0.10464 0.106423 0.113184 0.114265 0.117972 0.119482 0.121135 0.160397 0.162156 0.163515 0.165404 0.166984 0.217236 0.2243 0.227973 0.230411 0.252776 1.07007 1.0834 1.10724 1.12137 1.12894 1.1305 1.13716 1.14179 1.14391 1.15491 1.15908 1.16809 1.17342 1.19815 1.25348 1.25813 1.26083 1.26392 1.26608 1.27005 1.27335 
60 0.00174243 0.00892831 0.0183233 0.0246352 0.0262696 0.0284875 0.0333057 0.0378722 0.0451741 0.0985766 0.103984 0.113654 0.115555 0.121024 0.122639 0.12432 0.126561 0.255953 0.258024 0.260698 0.26612 0.268065 0.270208 0.277724 0.27959 0.281185 0.283717 0.285787 0.304094 0.305949 0.311524 0.313948 0.318822 0.330953 0.38975 0.402896 0.405988 0.417003 0.424122 0.426649 0.435006 0.440312 0.443809 0.447071 0.460622 0.47669 0.484077 
61 0.0180833 0.0256114 0.0289584 0.0389548 0.0415053 0.0489302 0.0536459 0.0630518 0.0660242 0.088983 0.0919426 0.0998412 0.101307 0.108657 0.111021 0.112952 0.116532 0.118842 0.121633 0.123699 0.126012 0.471463 0.474139 0.531667 0.534115 0.537735 0.571552 0.574655 0.588483 0.605673 0.612883 0.614902 0.62245 0.628069 0.630694 0.643893 0.662646 0.674795 0.688149 0.692411 0.708578 0.714499 0.722493 0.726355 0.729654 0.738258 0.747762 
62 0.000676449 0.0197241 0.0209822 0.0303728 0.0312893 0.0372056 2.24768 2.25037 2.25229 1.46732 1.46929 1.4755 1.47635 1.47933 1.48213 1.48378 1.48551 1.48663 1.48757 1.48868 1.49017 1.49131 1.4947 1.63997 1.66334 1.66459 1.66621 1.66853 1.67417 1.67624 1.68191 1.69288 1.69724 1.69993 1.70243 1.70615 1.70849 1.72677 1.73039 1.73677 1.74362 1.79036 1.84084 1.84328 1.85919 1.86646 1.87361 
63 0 0 0 0 0 0 0 0 0 0 0 0 0 0 0 0 0 0 0 0 0 0 0 0 0 0 0 0 0 0 0 0 0 0 0 0 0 0 0 0 0 0 0 0 0 0 1 
64 0.000874458 0.00388848 0.503583 0.263115 0.286881 0.172287 0.177784 0.181069 0.183036 0.139974 0.142466 0.151028 0.175412 0.175843 0.177531 0.178617 0.181562 0.204487 0.209017 0.210717 0.212435 0.214629 0.216778 0.237033 0.238896 0.240273 0.242741 0.244143 0.252777 0.254656 0.264349 0.26573 0.269636 0.273584 0.295542 0.300992 0.302742 0.309673 0.324846 0.327002 0.33403 0.378889 0.38639 0.388961 0.39251 0.397137 0.400184 
65 0.00116439 0.00377911 0.00568692 0.0157706 0.0179315 0.0199338 0.0394176 0.0450493 0.048684 0.0573512 0.0596205 0.074666 0.0766262 0.0828791 0.0844591 0.086119 0.0912984 0.0961104 0.0995147 0.102048 0.108604 0.112657 0.116351 0.11858 0.127324 0.134128 0.137793 0.142706 0.15095 0.15362 0.162798 0.165897 0.172724 0.178788 0.18814 0.197914 0.200569 0.218139 0.255321 0.261062 0.269428 0.274607 0.289583 0.294099 0.299039 0.303372 0.432571 
66 0.00175621 0.00500739 0.0232946 0.0394505 0.0418592 0.0453601 0.0498659 0.0537682 0.0555201 0.0704582 0.0726658 0.0844563 0.0867024 0.0917718 0.0934661 0.0955861 0.0985716 0.105548 0.109542 0.111652 0.113714 0.123358 0.12903 0.535509 0.537063 0.539139 0.544045 0.546513 0.572931 0.575253 0.583848 0.585541 0.602321 0.618445 0.621793 0.635861 0.639158 0.663385 0.669214 0.677718 0.723158 0.728865 0.731468 0.742049 0.745181 0.751904 0.755527 
67 0.00159434 0.00433988 0.00616557 0.0131392 0.0149479 0.0218719 0.0262811 0.0327149 0.0471901 0.0743608 0.0772192 0.0856161 0.087936 1.42163 1.42378 1.42677 1.42889 1.4307 1.43312 1.43564 1.44827 1.45083 1.45309 1.45574 1.45734 1.47133 1.47463 1.47741 1.51248 1.51536 1.52527 1.52854 1.53353 1.5379 1.54034 1.55214 1.56945 1.58871 1.60575 1.61232 1.62225 1.62742 1.63362 1.63671 1.64182 1.64889 1.65249 
68 0.00162436 0.00813064 0.00989897 0.0211308 0.0234843 0.0281324 0.0345879 0.0398185 0.0421043 0.0551032 0.0635999 0.0749645 0.0776192 0.0914413 0.0952868 0.0980316 0.104606 0.108616 0.111776 0.118778 0.126096 0.130848 0.136202 0.140746 0.143498 0.146209 0.15602 0.158805 0.172653 0.183277 0.221115 0.226342 0.233707 0.244998 0.248812 0.458858 0.462082 0.47776 0.491156 0.495939 0.524196 0.534714 0.541248 0.546364 0.554013 0.560283 0.567202 
69 0.000648636 0.00202588 0.0264034 0.0426336 0.0451266 0.0400939 0.0438074 0.0472379 0.048182 0.0493798 0.0507393 0.0564003 0.566939 0.477693 0.479219 0.480751 0.482547 0.484523 0.53191 0.533542 0.534819 0.536396 0.543248 0.545399 0.547138 0.549043 0.551838 0.553245 0.559884 0.561522 0.567688 0.569101 0.572654 0.575904 0.578799 0.582593 0.585872 0.591104 0.606191 0.607989 0.615859 0.62174 0.628923 0.631247 0.633631 0.644359 0.646327 
70 0.00250774 0.00672239 0.00872288 0.0200667 0.03316 0.0464075 0.0633699 0.0692777 0.0849125 0.116445 0.413588 0.422962 0.424364 0.534662 0.538315 0.540946 0.543968 0.550066 0.551666 0.553953 0.556696 0.559705 0.562919 0.565631 0.62599 0.628477 0.632758 0.638241 0.669699 0.674273 0.684614 0.693815 0.713844 0.719313 0.722984 0.747812 0.751631 0.781117 0.792093 0.800736 0.812855 0.823731 0.829408 0.842167 0.855859 0.862497 0.867398 
71 0.00164541 0.0117264 0.0128561 0.0219791 0.0232396 0.0263139 0.0333723 0.0376206 0.0395291 0.0543442 0.0588782 0.0741453 0.0759101 0.0917687 0.102019 0.110001 0.112372 0.113885 0.11817 0.119973 0.128484 0.13375 0.137387 0.13936 0.147019 0.149007 0.155383 0.203853 0.226649 0.228766 0.234521 0.239958 0.245936 0.253338 0.255858 0.263448 0.267285 0.279154 0.283546 0.287626 0.297614 0.304106 0.306264 0.310901 0.318584 0.324125 0.33914 
72 0.00139161 0.0308994 0.0332181 0.0319208 0.0346522 0.0373095 0.046203 0.0525512 0.0544164 0.0757682 0.0783891 0.982251 0.98469 0.991579 0.995276 0.998429 1.00253 1.00461 1.00983 1.01316 1.01612 1.03979 1.04339 1.04639 1.05033 1.05372 1.05923 1.08624 1.11571 1.11866 1.15239 1.15452 1.16154 1.16765 1.17966 1.18865 1.19293 1.23257 1.25434 1.2681 1.28198 1.30595 1.31487 1.31885 1.32258 1.33587 1.34055 
73 0.00110461 0.00346526 0.00851131 0.0165616 0.0229005 0.021209 0.0254183 0.0423192 0.0455852 0.0516564 0.0547495 0.0823775 0.0874647 0.0984683 0.0999042 0.101554 0.211243 0.213316 0.216755 0.222901 0.224732 0.228397 0.23215 0.234042 0.243288 0.252671 0.255499 0.257529 0.266186 0.26957 0.288664 0.292109 0.300964 0.307793 0.314946 0.325074 0.329893 0.342433 0.530284 0.53455 0.542293 0.550741 0.640303 0.645934 0.651018 0.655855 0.661819 
74 0.00193062 0.00905006 0.0110667 0.0217809 0.0265632 0.0391398 0.0587506 0.0745598 0.0792703 0.0868422 0.0928282 0.134032 0.135581 0.154916 0.158447 0.167336 0.174101 0.176413 0.17988 0.186463 0.189029 0.192219 0.196291 0.204838 0.207278 0.21188 0.216432 0.219454 0.241102 0.24647 0.263254 0.266832 0.291401 0.298463 0.302037 0.311375 0.315005 0.601708 0.611814 0.715283 0.745051 0.751562 0.756464 0.7629 0.768112 0.773331 0.780195 
75 0 0 0 0 0 1 0 0 0 0 0 0 0 0 0 0 0 0 0 0 0 0 0 0 0 0 0 0 0 0 0 0 0 0 0 0 0 0 0 0 0 0 0 0 0 0 0 
76 0.000698256 0.0184184 0.019586 0.0288119 0.0297699 0.0353615 2.49025 2.49304 2.49503 1.37516 1.37713 1.38342 1.38432 1.3875 1.39001 1.39167 1.3936 1.39494 1.39604 1.39723 1.39913 1.40051 1.40389 1.45411 1.47614 1.47793 1.47968 1.48225 1.48807 1.49015 1.49572 1.50611 1.51062 1.51351 1.5165 1.5206 1.52292 1.54262 1.54677 1.55362 1.56059 1.59663 1.64352 1.64605 1.66113 1.66807 1.68471 
77 0.0015778 0.00431724 0.00610378 0.0130828 0.0149004 0.0221629 0.0265598 0.0330528 0.0476486 0.0750554 0.0777633 0.0861945 0.0884455 1.43294 1.43515 1.43815 1.44023 1.44202 1.44419 1.44679 1.45926 1.46179 1.46401 1.46664 1.46827 1.48622 1.48942 1.49218 1.52874 1.53168 1.54215 1.54542 1.55042 1.55477 1.55724 1.56803 1.58549 1.60527 1.62271 1.62946 1.63927 1.64441 1.65079 1.65388 1.65897 1.66583 1.66943 
78 0.00161012 0.00452035 0.00576727 0.0188837 0.0205966 0.0284949 0.0338621 1.30198 1.30426 0.91221 0.914329 0.923125 0.92626 0.934098 0.937157 0.939824 0.942393 0.944487 0.946344 0.948972 0.96526 0.968239 0.97153 0.974385 0.977149 0.980175 0.983863 0.986965 1.00337 1.02199 1.0301 1.03287 1.05522 1.0601 1.06341 1.07106 1.0974 1.12093 1.14448 1.15219 1.16196 1.17034 1.1836 1.19919 1.20384 1.22361 1.2264 
79 0.0163947 0.0215466 0.0223209 0.0271095 0.0282425 0.0330908 0.0412998 0.0470805 0.0486314 0.106469 0.108762 0.117034 0.119049 0.125636 0.530046 0.533278 0.536562 0.539171 0.540835 0.543191 0.546275 0.54866 0.551941 0.554143 0.572719 0.586689 0.590167 0.603437 0.618263 0.621464 0.635252 0.637261 0.641662 0.64746 0.649215 0.662777 0.667281 0.681642 0.68629 0.691151 0.748588 0.818932 0.822791 0.825412 0.82961 0.859021 0.862395 
80 0.0122674 0.0186943 0.0195068 0.0263741 0.0275841 0.0332608 0.0413533 0.0466786 0.0481821 0.10587 0.108651 0.117206 0.118961 0.126092 0.533039 0.53579 0.538294 0.540995 0.542735 0.545392 0.548805 0.551171 0.554622 0.556961 0.57583 0.58989 0.593996 0.607369 0.620842 0.624483 0.640885 0.643037 0.647606 0.653259 0.655139 0.687017 0.691026 0.708926 0.714061 0.720159 0.778116 0.83129 0.834991 0.837655 0.841514 0.860367 0.863919 
81 0.00214156 0.00586981 0.00735027 0.029592 0.0311319 0.0388218 0.113721 0.121119 0.123719 0.160373 0.171676 0.188884 0.190289 0.196638 0.213735 0.215534 0.217451 0.219148 0.220688 0.222315 0.225673 0.228062 0.235267 0.238208 0.633085 0.63576 0.643468 0.717589 0.728997 0.743709 0.750521 0.75286 0.760215 0.76339 0.766116 0.772024 0.776132 0.78576 0.790544 0.79341 0.802134 0.847638 0.851305 0.855149 0.858738 0.865684 0.876603 
82 0 0 0 0 0 0 0 0 0 0 0 0 0 0 0 0 0 0 0 0 0 0 0 0 0 0 0 0 0 0 0 0 0 0 0 0 1 0 0 0 0 0 0 0 0 0 0 
83 0.000840119 0.00346207 0.506159 0.266182 0.290091 0.175089 0.180501 0.183688 0.185246 0.137605 0.139676 0.148483 0.172943 0.173236 0.174915 0.176034 0.179044 0.188033 0.192763 0.194493 0.195823 0.198715 0.201173 0.258282 0.260081 0.261483 0.264121 0.265518 0.274752 0.276648 0.286548 0.287896 0.292935 0.297255 0.31824 0.323642 0.325344 0.333568 0.348641 0.351392 0.361654 0.406646 0.414094 0.417365 0.419784 0.423395 0.425997 
84 0.00120861 0.00345975 0.00475892 0.0130863 0.0142353 0.0163444 0.0310582 0.0344719 0.0371234 0.0447914 0.0464545 0.0590067 0.0606927 0.0654566 0.0667533 0.0680967 0.0716726 0.0747074 0.0800316 0.0818775 0.0885162 0.0931328 0.0963601 0.0984017 0.103756 0.109857 0.113461 0.11884 0.125738 0.127816 0.134195 0.136433 0.141704 0.146447 0.1536 0.161718 0.163581 0.17867 0.186958 0.191755 0.198673 0.202533 0.206786 0.21029 0.213831 0.216952 0.317909 
85 0.00164169 0.00494396 0.0071586 0.0212785 0.022918 0.0290396 0.0335955 0.0785469 0.080501 1.54551 1.54829 1.55846 1.56036 1.56999 1.58313 1.58553 1.58764 1.60114 1.60542 1.60837 1.61142 1.61412 1.61936 1.62314 1.62535 1.62864 1.63254 1.63582 1.70363 1.70597 1.71371 1.71608 1.72181 1.73379 1.7489 1.81007 1.83458 1.84363 1.84901 1.85181 1.86411 1.87 1.87268 1.87675 1.88198 1.90187 1.90507 
86 0.000843118 0.0183236 0.0195551 0.0370473 0.0404725 1.58312 1.59211 1.59545 1.59666 0.862077 0.863934 0.873528 0.874686 0.878751 0.880178 0.882529 0.885313 0.887506 0.890406 0.892416 0.89367 0.89519 0.900364 0.902864 0.904275 0.90571 0.910456 0.911991 0.918984 0.920675 1.0676 1.06898 1.0743 1.07797 1.08047 1.08537 1.08734 1.12934 1.13372 1.15287 1.21525 1.21869 1.22077 1.2232 1.22498 1.22736 1.2299 
87 0.00141309 0.00387408 0.00490942 0.0456204 0.0475926 0.133218 0.136363 0.14243 0.144076 0.103071 0.104705 0.111276 0.112667 0.115965 0.117389 0.119283 0.127305 0.129016 0.130216 0.132415 0.134147 0.144005 0.160332 0.162551 0.165446 0.200139 1.09347 1.10731 1.13212 1.14526 1.15702 1.15934 1.16487 1.1686 1.17083 1.18213 1.18506 1.19162 1.19575 1.23066 1.27844 1.28393 1.28589 1.28844 1.29186 1.29535 1.29765 
88 0.001582 0.327667 0.329552 0.236888 0.239193 0.371986 0.465299 0.469104 0.470867 0.411424 0.414227 0.425072 0.426572 0.431605 0.434063 0.437152 0.453345 0.45939 0.464184 0.467184 0.469438 0.471803 0.474601 0.479085 0.481454 0.482934 0.487629 0.489916 0.499598 0.501959 0.528242 0.531271 0.536844 0.545957 0.562909 0.576223 0.578152 0.612383 0.617586 0.629442 0.649884 0.656732 0.660908 0.663999 0.668161 0.672213 0.676858 
89 0.00170877 0.00409754 0.00637427 0.0157037 0.0173458 0.0279392 0.0316946 0.0684855 0.0703376 0.166842 0.168843 0.176916 0.178072 0.214647 0.21766 0.219491 0.221255 0.225813 0.227257 0.236619 0.239386 0.251343 0.254823 0.274834 0.277145 0.279783 0.286017 0.301876 0.331451 0.333699 0.342512 0.34825 0.360712 0.368213 0.371359 0.380608 0.845103 0.85966 0.868659 0.871711 1.02182 1.02592 1.03024 1.04093 1.04936 1.05556 1.05786 
90 0.0008253 0.0035796 0.0273946 0.0440486 0.544587 0.303152 0.307277 0.310755 0.312936 0.205358 0.222683 0.232867 0.234987 0.243252 0.244468 0.246242 0.264318 0.266412 0.267797 0.269911 0.271651 0.273388 0.278624 0.281647 0.283657 0.287543 0.293175 0.295467 0.3781 0.380471 0.44285 0.445002 0.450351 0.455428 0.45892 0.465259 0.46833 0.488551 0.494643 0.501781 0.518974 0.525377 0.52833 0.531525 0.53463 0.537529 0.539967 
91 0 0 0 0 0 0 0 0 0 0 0 0 0 0 0 0 0 0 1 0 0 0 0 0 0 0 0 0 0 0 0 0 0 0 0 0 0 0 0 0 0 0 0 0 0 0 0 
92 0.000728073 0.0154746 0.0166976 0.0280736 0.0290343 0.0344602 2.49226 2.49514 2.49805 1.37807 1.38034 1.38645 1.3874 1.39091 1.3936 1.39568 1.39731 1.39843 1.39937 1.40057 1.40289 1.40404 1.40803 1.45831 1.48005 1.48133 1.4831 1.48543 1.49248 1.49453 1.50029 1.52932 1.53425 1.53736 1.54024 1.54437 1.54857 1.56605 1.57011 1.57621 1.58581 1.62926 1.6762 1.67905 1.72059 1.72778 1.7347 
93 0.00319506 0.00720827 0.0214362 0.0337942 0.0357542 0.0376361 0.102889 0.110901 0.123757 0.137262 0.141136 0.168802 0.170626 0.175335 0.202241 0.204107 0.205931 0.208128 0.210159 0.211741 0.213234 0.215942 0.219832 0.223015 0.233552 0.235448 0.239207 0.241614 0.249018 0.260558 0.290404 0.292602 0.305136 0.308668 0.312471 0.322365 0.325012 0.337374 0.348118 0.350947 0.357582 1.2892 1.2959 1.30476 1.30833 1.31512 1.31754 
94 0.00224629 0.0060975 0.020726 0.0356253 0.0376706 0.0399158 0.114317 0.122651 0.135184 0.151383 0.154865 0.183026 0.18491 0.189659 0.217748 0.219239 0.221014 0.222625 0.224556 0.226104 0.227643 0.229962 0.234667 0.23795 0.287375 0.289382 0.293167 0.298796 0.306424 0.318991 0.349612 0.351675 0.364277 0.36727 0.370703 0.37829 0.380582 0.389025 0.399676 0.402105 0.408618 1.34784 1.35455 1.3634 1.36674 1.3739 1.37712 
95 0.0126189 0.0189458 0.0197995 0.0261334 0.0272654 0.0330448 0.0405456 0.0491361 0.0506174 0.242185 0.244457 0.252814 0.254462 0.261215 0.670617 0.673315 0.675307 0.678716 0.680524 0.682773 0.685827 0.688026 0.691013 0.693157 0.711924 0.726026 0.729315 0.742788 0.76235 0.765315 0.778496 0.780345 0.784547 0.790171 0.793206 0.823496 0.829922 0.846244 0.85065 0.85619 0.901014 0.955017 0.958393 0.960861 0.96448 0.983599 0.986924 
96 0.000838091 0.0179464 0.0193731 0.0367664 0.0401289 1.59107 1.59904 1.6017 1.6027 0.866152 0.867725 0.875896 0.877119 0.881076 0.882311 0.883959 0.886488 0.888803 0.89164 0.893318 0.894639 0.896258 0.901429 0.903686 0.905107 0.906376 0.911333 0.91302 0.91962 0.921265 1.06854 1.06977 1.07395 1.07754 1.08013 1.08516 1.08724 1.10979 1.1142 1.12367 1.18621 1.18968 1.19162 1.19385 1.19545 1.19778 1.20035 
97 0 0 0 0 0 0 0 0 0 0 0 0 0 0 0 0 1 0 0 0 0 0 0 0 0 0 0 0 0 0 0 0 0 0 0 0 0 0 0 0 0 0 0 0 0 0 0 
98 0.00164458 0.00842287 0.016597 0.0222175 0.0239305 0.0260771 0.0308538 0.0357854 0.0410573 0.0988359 0.106259 0.112953 0.115074 0.121977 0.123889 0.12556 0.128119 0.254339 0.256344 0.258472 0.266118 0.268228 0.270437 0.276292 0.278315 0.280008 0.283156 0.285217 0.305557 0.307926 0.315987 0.318206 0.322334 0.333638 0.347023 0.385492 0.388724 0.39933 0.406872 0.40945 0.419151 0.424674 0.42838 0.431118 0.444526 0.46009 0.467868 
99 0.021571 0.0281756 0.0303316 0.038711 0.0412171 0.0478871 0.0537717 0.0639903 0.0671279 0.0912264 0.0942945 0.10224 0.104082 0.111696 0.115052 0.11751 0.121114 0.123189 0.125672 0.127976 0.130402 0.474343 0.477315 0.497108 0.499811 0.503653 0.537749 0.540863 0.555159 0.573038 0.581338 0.584111 0.591009 0.596383 0.598977 0.611883 0.6317 0.642355 0.655914 0.659666 0.67395 0.680859 0.689313 0.692765 0.69755 0.715897 0.725576 
100 0.00252581 0.00699468 0.0091585 0.0198814 0.0336491 0.0462455 0.0551314 0.0608505 0.0767581 0.105902 0.390203 0.399801 0.401372 0.486773 0.489468 0.492175 0.495799 0.503161 0.50509 0.507877 0.51122 0.514658 0.517864 0.520779 0.535153 0.537611 0.542596 0.545652 0.572902 0.577032 0.590208 0.599613 0.619628 0.625836 0.629704 0.680963 0.684842 0.712731 0.724577 0.732919 0.747043 0.75575 0.761662 0.774572 0.788665 0.795341 0.800479 
101 0.000421008 0.00160028 0.0254974 0.0407018 0.0428531 0.0374276 0.0403616 0.0433756 0.0441602 0.044377 0.0453573 0.0497673 0.558955 0.468934 0.470316 0.471673 0.473175 0.474517 0.612499 0.613914 0.614841 0.616026 0.622386 0.624231 0.625687 0.627354 0.629475 0.630466 0.635852 0.637106 0.642091 0.64335 0.646295 0.64901 0.65142 0.654325 0.657141 0.660913 0.674942 0.676254 0.682396 0.687505 0.694356 0.696289 0.698401 0.708686 0.710107 
102 0.000887879 0.00355844 0.50541 0.265301 0.289179 0.174208 0.185186 0.188749 0.191046 0.144073 0.146203 0.156769 0.181183 0.181464 0.184869 0.18593 0.188843 0.197441 0.201978 0.203666 0.204965 0.207188 0.209529 0.229542 0.232398 0.233814 0.236375 0.23783 0.245419 0.248155 0.260767 0.262139 0.266777 0.26994 0.290957 0.29585 0.297485 0.304084 0.319649 0.321779 0.328645 0.457511 0.465323 0.468436 0.470862 0.474513 0.477065 
103 0.00188772 0.0055041 0.00652749 0.0212155 0.0226076 0.0304123 0.0358215 0.0402883 0.0424417 0.0613944 0.0639832 0.0712184 0.0726878 0.0809259 0.0828979 0.43715 0.439884 0.441554 0.443695 0.495036 0.498536 0.500634 0.506212 0.508375 0.510312 0.513568 0.517888 0.520604 0.532938 0.535176 0.541411 0.552945 0.557958 0.577116 0.581434 0.589375 0.594274 0.620355 0.627025 0.633622 0.645857 0.650326 0.653655 0.660527 0.676368 0.684176 0.687377 
104 0.495542 0.2731 0.274023 0.172182 0.172996 0.111747 0.115097 0.133913 0.149701 0.132229 0.135279 0.144585 0.145358 0.150216 0.16807 0.16947 0.170827 0.17239 0.175595 0.176681 0.178169 0.197491 0.198826 0.200593 0.203928 0.20706 0.213409 0.215939 0.22365 0.282567 0.286817 0.288293 0.29795 0.300566 0.302834 0.307306 0.310042 0.321631 0.326054 0.328942 0.335396 0.355296 0.402857 0.404962 0.407435 0.414372 0.416702 
105 0.00146997 0.00427897 0.0052147 0.0189302 0.0203014 0.0224987 0.0670355 0.075167 0.0879965 0.097248 0.102738 0.108599 0.113006 0.125684 0.127469 0.134681 0.136438 0.138387 0.139916 0.142036 0.178994 0.180629 0.186038 0.188738 0.191161 0.192905 0.19576 0.199095 0.223933 0.225845 0.2325 0.397009 0.408377 0.416484 0.425493 0.434744 0.453507 0.464127 0.473083 0.476514 0.51551 0.520766 0.526337 0.533705 0.871462 0.877717 0.88282 
106 0.00192034 0.00594051 0.00690347 0.0192737 0.0205413 0.0285048 0.0340898 0.0383062 0.0406354 0.059499 0.0621488 0.0687413 0.0701631 0.0892922 0.0917683 0.450114 0.452655 0.454274 0.45626 0.470795 0.474915 0.47717 0.481752 0.483786 0.485654 0.487879 0.491945 0.495019 0.507023 0.5089 0.514316 0.527656 0.532708 0.553522 0.556539 0.563208 0.567109 0.588887 0.59424 0.59969 0.61209 0.616392 0.619033 0.623238 0.641464 0.649009 0.652959 
107 0 1 0 0 0 0 0 0 0 0 0 0 0 0 0 0 0 0 0 0 0 0 0 0 0 0 0 0 0 0 0 0 0 0 0 0 0 0 0 0 0 0 0 0 0 0 0 
108 0.00337251 0.00667684 0.00796556 0.0271767 0.0302952 0.0367119 0.042108 0.0639355 0.067555 0.0921764 0.0942606 0.106108 0.107885 0.147814 0.160796 0.163039 0.16592 0.167593 0.169212 0.183195 0.18565 0.18946 0.191806 0.193939 0.198193 0.551741 0.557728 0.560923 0.620088 0.674281 0.769981 0.771942 0.78414 0.791528 0.795035 0.801481 0.805216 0.826394 0.851921 0.858178 0.871998 0.882281 0.896198 0.899798 0.902941 0.913133 0.923508 
109 0.00218193 0.00495122 0.00632041 0.0169208 0.0190145 0.061922 0.0661543 0.0701027 0.0716246 0.0905509 0.0925158 0.101228 0.102661 0.107685 0.117707 0.120341 0.123318 0.146948 0.149593 0.151735 0.153544 0.155992 0.160722 0.169832 0.171686 0.175183 0.198116 0.201921 0.222455 0.224569 0.260564 0.262607 0.268171 0.30379 0.305833 0.321469 0.334573 0.352546 0.358034 0.364887 1.63135 1.63679 1.63931 1.64221 1.64531 1.6518 1.65448 
110 0.00162286 0.0131707 0.0238239 0.0362715 0.0381008 0.0419043 0.0488627 0.0543728 0.0566108 0.0991885 0.101752 0.139728 0.141309 0.145258 0.146548 0.148891 0.151616 0.161127 0.162775 0.174243 0.177429 0.180241 0.183585 0.185853 0.188063 0.190527 0.193838 0.197164 0.219366 0.221998 0.228615 0.235424 0.24906 0.253432 0.697747 0.706158 0.709966 0.722199 0.728287 0.731317 0.740152 0.746655 0.749583 0.75928 0.769282 0.77308 0.780654 
111 0.000909477 0.0180915 0.0194375 0.0367557 0.0398454 1.58381 1.59124 1.59378 1.59474 0.860424 0.861812 0.871471 0.872955 0.876575 0.8778 0.879394 0.882132 0.884307 0.889936 0.891738 0.893229 0.894793 0.9 0.902297 0.903651 0.90481 0.910086 0.911662 0.917847 0.919276 1.06578 1.06699 1.0711 1.0747 1.07711 1.08213 1.08402 1.10393 1.10826 1.11675 1.17811 1.1816 1.18365 1.18594 1.18751 1.18987 1.19251 
112 0.00205304 0.00584386 0.00856715 0.0308734 0.0324823 0.0395868 0.14076 0.148317 0.151957 0.181763 0.193249 0.206069 0.207461 0.213655 0.228427 0.23021 0.232015 0.233737 0.235204 0.236792 0.239269 0.241519 0.248756 0.252195 0.643358 0.645792 0.651308 0.685069 0.694864 0.710248 0.719131 0.721573 0.729669 0.732772 0.73551 0.741475 0.744576 0.754032 0.759289 0.76202 0.769836 0.900697 0.905108 0.909516 0.913237 0.920357 0.930846 
113 0.00205956 0.00588186 0.00987695 0.0201586 0.0787739 0.0717073 0.0794928 0.0845729 0.095987 0.109384 0.468579 0.477161 0.478561 0.552494 0.554654 0.557122 0.561469 0.567893 0.569398 0.571538 0.574022 0.576881 0.579766 0.582228 0.594698 0.596941 0.600892 0.603544 0.629851 0.632948 0.647708 0.655838 0.673496 0.678574 0.682047 0.706381 0.709786 0.737222 0.747341 0.755753 0.767654 0.774867 0.779907 0.791182 0.803232 0.809035 0.812907 
114 0.00154724 0.0043495 0.00589435 0.0131288 0.014842 0.0220028 0.0259222 0.0324289 0.0471165 0.0761634 0.078825 0.086823 0.0888405 1.44159 1.44474 1.44771 1.44976 1.45139 1.45368 1.45723 1.46755 1.46996 1.47207 1.47456 1.47619 1.53174 1.53465 1.53715 1.57571 1.57939 1.59678 1.6 1.60483 1.60929 1.61157 1.62296 1.64027 1.65762 1.67602 1.68181 1.69098 1.69612 1.70328 1.70629 1.7113 1.71836 1.72228 
115 0.000487833 0.0018955 0.0715754 0.0691421 0.0734689 0.0561063 0.0595247 0.0628242 0.0637436 0.0585017 0.0596629 0.0648376 0.580477 0.489697 0.49123 0.492684 0.49445 0.496573 0.544436 0.546004 0.547046 0.548424 0.555016 0.558674 0.560295 0.562089 0.564431 0.565542 0.571605 0.573026 0.578891 0.580271 0.583564 0.586565 0.590882 0.594193 0.597163 0.601501 0.616978 0.618475 0.625241 0.634444 0.64201 0.644173 0.646499 0.657146 0.658792 
116 0.000734169 0.00342963 0.0726817 0.0707773 0.572836 0.318719 0.322919 0.325928 0.327657 0.208164 0.225093 0.233913 0.238118 0.244625 0.245777 0.247414 0.265529 0.267978 0.269578 0.271328 0.272663 0.274321 0.279541 0.283788 0.285752 0.288561 0.293158 0.294896 0.327097 0.328996 0.390449 0.392179 0.397037 0.400834 0.40558 0.411327 0.41368 0.432973 0.439846 0.446605 0.462328 0.472368 0.475732 0.47853 0.480966 0.483656 0.485992 
117 0.0679734 0.0576045 0.0591731 0.0580297 0.0601064 0.0571143 0.066225 0.0754618 0.432886 0.313013 0.326143 0.334912 0.336075 0.386726 0.39386 0.396248 0.398397 0.404992 0.406656 0.40852 0.411145 0.41615 0.420094 0.422504 0.425974 0.42903 0.432897 0.435192 0.471308 0.488036 0.495339 0.510052 0.530683 0.54132 0.546688 0.553481 0.557983 0.579194 0.591595 0.598359 0.60925 0.650391 0.66396 0.676115 0.702462 0.707428 0.715247 
118 0.00341377 0.00776439 0.0102322 0.0178197 0.0192733 0.0243926 0.0304182 0.0349209 0.0365513 0.0542471 0.0559815 0.0967002 0.100843 0.108353 0.110071 0.112156 0.118778 0.12103 0.163615 0.168797 0.174932 0.178181 0.18219 0.18705 0.189567 0.191969 0.200293 0.20383 0.214594 0.216353 0.229014 0.230703 0.238667 0.245778 0.248993 0.259426 0.26188 0.277405 0.288835 0.29396 0.308015 0.31446 0.320416 0.325903 0.328617 0.333575 0.355754 
119 0.00119827 0.00339176 0.00428651 0.0233287 0.0249069 0.10278 0.105187 0.109823 0.111009 0.0902434 0.0916793 0.0968804 0.0978476 0.100727 0.101903 0.10339 0.110974 0.11255 0.113462 0.115192 0.116487 0.126039 0.133954 0.135754 0.137728 0.264254 1.15351 1.16368 1.18728 1.19722 1.20447 1.20592 1.21004 1.21324 1.21499 1.22538 1.22771 1.2331 1.23638 1.27074 1.31752 1.32175 1.32327 1.32519 1.32713 1.32986 1.33166 
120 0.00158163 0.00456239 0.00641159 0.0160281 0.017764 0.0213082 0.0361978 0.0476076 0.0494868 0.0819005 0.0851361 0.0997437 0.106854 0.116047 0.127378 0.134465 0.138351 0.142384 0.148669 0.15462 0.159014 0.162506 0.170443 0.174712 0.179983 0.183885 0.188268 0.19096 0.229482 0.233962 0.255039 0.259097 0.269994 0.282936 0.285685 0.295106 0.305768 0.317551 0.327108 0.331016 0.353865 0.371895 0.376827 0.384161 0.397412 0.486949 0.491368 
121 0.00087348 0.0035319 0.0274174 0.0438425 0.540839 0.300552 0.305298 0.308454 0.310179 0.197943 0.214926 0.22429 0.226497 0.233923 0.235096 0.236814 0.25487 0.256991 0.258395 0.26023 0.261761 0.263665 0.268992 0.271748 0.273811 0.276814 0.281904 0.283934 0.316615 0.318733 0.380253 0.382009 0.387098 0.391176 0.394489 0.400706 0.403388 0.423499 0.430042 0.437097 0.458278 0.464938 0.46795 0.470888 0.473337 0.476148 0.478802 
122 0.000744728 0.0180748 0.0195189 0.0368863 0.0416022 1.58331 1.59079 1.59365 1.59469 0.859491 0.861091 0.868687 0.869981 0.87318 0.874402 0.876294 0.878892 0.881106 0.883889 0.885604 0.886819 0.888589 0.89377 0.895781 0.897292 0.89849 0.903733 0.905319 0.911788 0.913682 1.06016 1.06172 1.06555 1.06901 1.07184 1.0767 1.07858 1.09831 1.10311 1.11155 1.1728 1.17641 1.17866 1.18074 1.18234 1.18488 1.18715 
123 0.000775166 0.0178041 0.0191649 0.0517027 0.0570901 1.59171 1.59944 1.60213 1.60338 0.864786 0.866311 0.873767 0.875293 0.878612 0.879881 0.881705 0.884457 0.886628 0.889569 0.891641 0.89305 0.894506 0.906544 0.908903 0.910875 0.912115 0.917894 0.919686 0.925915 0.927428 1.07462 1.07621 1.08082 1.08447 1.08721 1.09261 1.09479 1.11479 1.11915 1.12775 1.18972 1.19379 1.19582 1.19846 1.20058 1.20307 1.20554 
124 0.000792532 0.00449855 0.0283 0.0458216 0.545801 0.305193 0.309538 0.312692 0.314432 0.202192 0.219133 0.227979 0.230095 0.237009 0.238182 0.239988 0.290855 0.292709 0.294188 0.295984 0.297388 0.299167 0.304691 0.307418 0.309399 0.312358 0.319509 0.321368 0.353795 0.355753 0.417111 0.418901 0.425017 0.429838 0.433008 0.440163 0.442582 0.463947 0.47049 0.47791 0.503328 0.509701 0.512888 0.516387 0.518879 0.52183 0.524614 
125 0.00127325 0.0274825 0.0296339 0.0329248 0.0355186 0.0392237 0.0471441 0.0532047 0.055118 0.0770739 0.079427 1.12442 1.12634 1.13257 1.13667 1.13923 1.14334 1.14511 1.15021 1.15334 1.15676 1.18278 1.18567 1.18837 1.19453 1.19781 1.2051 1.27398 1.30371 1.30648 1.34183 1.34379 1.35045 1.35512 1.37012 1.37735 1.38199 1.42444 1.44707 1.46188 1.47385 1.50411 1.51347 1.51713 1.52011 1.52606 1.53076 
126 0.000894397 0.00703473 0.00980923 0.0182574 0.0211874 0.0306435 0.0353956 0.0425769 0.0449316 0.0522946 0.0552451 0.0652451 0.0681902 0.0715913 0.0739569 0.0792608 0.0822926 0.0864485 0.0883324 0.0920118 0.0935801 0.098287 0.102039 0.104405 0.107292 0.109294 0.121568 0.124711 0.140507 0.148894 0.162218 0.169083 0.172776 0.178844 0.187085 0.196365 0.199357 0.211775 0.218257 0.222899 0.351845 0.359061 0.36208 0.364341 0.366903 0.374316 0.377581 
127 0.000879958 0.0178504 0.0193997 0.0366448 0.0399545 1.58079 1.58862 1.59126 1.59225 0.858374 0.859971 0.867855 0.869128 0.872976 0.874203 0.8758 0.878359 0.880644 0.883544 0.885224 0.886599 0.888332 0.893521 0.895702 0.897162 0.898466 0.905055 0.906796 0.913372 0.915071 1.06151 1.06274 1.06756 1.07114 1.07382 1.07882 1.08101 1.1011 1.10564 1.11426 1.17626 1.17986 1.18181 1.18456 1.18616 1.18851 1.19103 
128 0.00239627 0.00544573 0.00700168 0.0162869 0.0192828 0.0234566 0.0430952 0.0561332 0.0577915 0.088185 0.0911238 0.10565 0.111665 0.119853 0.167368 0.173552 0.176634 0.179792 0.182748 0.187779 0.191585 0.195419 0.205087 0.208754 0.213873 0.220667 0.224212 0.227745 0.25528 0.25945 0.379119 0.383157 0.390634 0.401767 0.404169 0.413329 0.422878 0.434375 0.443397 0.447255 0.474284 0.495884 0.500945 0.505889 0.515499 0.595469 0.599435 
129 0 0 0 0 0 0 0 0 0 0 0 0 0 0 0 0 0 0 0 0 0 0 0 1 0 0 0 0 0 0 0 0 0 0 0 0 0 0 0 0 0 0 0 0 0 0 0 
130 0.0568038 0.0458182 0.0464742 0.0392472 0.0401803 0.038057 0.0443716 0.0494217 0.0522029 0.0999072 0.101931 0.109771 0.111219 0.116919 0.491228 0.493687 0.49553 0.497574 0.499162 0.501024 0.503875 0.507324 0.509742 0.51149 0.525563 0.538105 0.541218 0.55554 0.567152 0.571486 0.582315 0.583952 0.587783 0.59212 0.593711 0.605446 0.608988 0.623712 0.627587 0.632512 0.673092 0.908276 0.915435 0.917537 0.920689 0.937875 0.940855 
131 0 0 0 0 1 0 0 0 0 0 0 0 0 0 0 0 0 0 0 0 0 0 0 0 0 0 0 0 0 0 0 0 0 0 0 0 0 0 0 0 0 0 0 0 0 0 0 
132 0.00149217 0.0129803 0.0238279 0.0379359 0.0398119 0.043373 0.0503687 0.0583049 0.0607312 0.224749 0.227241 0.264464 0.266056 0.27041 0.272642 0.274557 0.2771 0.287522 0.289322 0.30074 0.30315 0.305778 0.309794 0.31228 0.314249 0.316446 0.319791 0.322793 0.350429 0.352841 0.359333 0.3661 0.37938 0.385356 0.833004 0.844889 0.850711 0.860769 0.866567 0.869567 0.878249 0.885172 0.887931 0.897427 0.907511 0.911479 0.919105 
133 0.0016905 0.00507047 0.00735617 0.0221591 0.0238578 0.0306352 0.0338333 0.0828522 0.0848635 1.27638 1.2791 1.28891 1.29035 1.30122 1.31475 1.31646 1.31842 1.33224 1.33634 1.33924 1.34223 1.34501 1.34985 1.35393 1.35595 1.35932 1.36333 1.36694 1.44292 1.44516 1.45199 1.45423 1.45963 1.47167 1.48823 1.55533 1.58778 1.59674 1.60187 1.60457 1.6166 1.62163 1.62415 1.62806 1.63261 1.64025 1.64331 
134 0.00122369 0.00428227 0.00568854 0.0183625 0.0202657 0.0280675 0.0345996 0.0833523 0.0861655 0.12067 0.123316 0.134245 0.158946 0.203773 0.206904 0.209656 0.211979 0.218171 0.22334 0.226319 0.522465 0.524757 0.529243 0.531992 0.534599 0.538071 0.542964 0.555715 0.63771 0.640412 0.649823 0.661915 0.667691 0.673807 0.677734 0.693595 0.700547 0.7116 0.718147 0.721689 0.73389 0.739071 0.742218 0.74629 0.766779 0.77357 0.784447 
135 0.00121836 0.00913729 0.00998456 0.0166358 0.0175904 0.0189834 0.0236546 0.0266034 0.0280629 0.0376411 0.0411561 0.0478401 0.0491232 0.0620113 0.0693126 0.0757099 0.0774119 0.0785273 0.081619 0.0829529 0.0889939 0.092957 0.0958328 0.0972665 0.0991404 0.100522 0.103522 0.109144 0.125897 0.127301 0.131485 0.135826 0.140351 0.14605 0.147851 0.153669 0.155627 0.164614 0.167774 0.170841 0.178265 0.182894 0.184438 0.187986 0.194058 0.197961 0.208968 
136 0.00135067 0.0125765 0.0148143 0.0546123 0.0717625 0.0667958 0.0733859 0.0782069 0.0800437 0.0891391 0.0917641 0.100711 0.102438 0.107128 0.109015 0.112101 0.483113 0.485054 0.48828 0.490787 0.492918 0.496058 0.510372 0.513629 0.516104 0.519035 0.545147 0.547942 0.558556 0.56098 0.57181 0.574069 0.592414 0.605875 0.609591 0.628591 0.631174 0.66097 0.672554 0.682057 0.794627 0.799825 0.805368 0.816051 0.819408 0.825741 0.832528 
137 0.00130487 0.00447659 0.00591196 0.0186645 0.0200554 0.0276836 0.034343 0.0824845 0.0849172 0.114829 0.117193 0.1296 0.159153 0.196225 0.199358 0.202116 0.204857 0.209777 0.219496 0.222987 0.521499 0.523758 0.528454 0.530962 0.533552 0.536021 0.540828 0.553458 0.584052 0.586429 0.595334 0.60808 0.614713 0.619932 0.623432 0.641233 0.646485 0.657178 0.664474 0.667848 0.679259 0.684588 0.68817 0.69282 0.714675 0.721302 0.731966 
138 0.000935053 0.00424019 0.0263004 0.0423819 0.503769 0.27987 0.285919 0.289995 0.292806 0.192233 0.239083 0.250421 0.252475 0.266046 0.267499 0.270046 0.287275 0.289535 0.291033 0.293179 0.294701 0.296519 0.301678 0.304745 0.307679 0.310744 0.315413 0.317346 0.350041 0.352276 0.410162 0.412617 0.420134 0.424399 0.427574 0.435294 0.437866 0.480942 0.48769 0.50282 0.519784 0.52637 0.529694 0.533573 0.537056 0.540171 0.543004 
139 0.00219529 0.00596724 0.00791582 0.017347 0.0304058 0.0420388 0.0505758 0.0560543 0.0681729 0.0996482 0.452359 0.46181 0.463152 0.541632 0.543973 0.546463 0.549359 0.555165 0.556718 0.559231 0.562019 0.564979 0.567636 0.570454 0.587332 0.590515 0.595235 0.598692 0.678668 0.682279 0.693364 0.701937 0.719994 0.726885 0.730725 0.755361 0.759347 0.784773 0.795023 0.802718 0.81558 0.822985 0.828072 0.839751 0.852458 0.858522 0.862481 
140 0.00254098 0.00512711 0.00743153 0.016223 0.0178323 0.0243355 0.0284588 0.0652298 0.0675558 0.162545 0.165823 0.173833 0.174977 0.211505 0.213794 0.215965 0.217692 0.22067 0.222092 0.231415 0.234193 0.246455 0.249765 0.26955 0.272292 0.274764 0.27905 0.294428 0.322475 0.324742 0.330816 0.336858 0.34948 0.354403 0.358002 0.366771 0.830214 0.847147 0.857556 0.860402 0.893551 0.899243 0.904384 0.915247 0.924144 0.929953 0.93226 
141 0.0199154 0.0258665 0.0278264 0.0351819 0.0372963 0.0434348 0.0477797 0.0562622 0.0591262 0.0790467 0.0829124 0.090009 0.0913156 0.0990972 0.101495 0.103202 0.10674 0.108658 0.111142 0.11334 0.115861 0.529507 0.531858 0.546088 0.548375 0.551651 0.583159 0.586028 0.597332 0.613726 0.622619 0.624649 0.63066 0.634993 0.637366 0.670496 0.687788 0.697603 0.708614 0.71202 0.725039 0.730935 0.737958 0.740962 0.744176 0.751031 0.759967 
142 0.00155187 0.00415338 0.00536399 0.0183662 0.0200149 0.0268038 0.0311743 1.44909 1.45164 0.849303 0.851459 0.859544 0.861856 0.868586 0.870696 0.872665 0.875316 0.877068 0.878687 0.880941 0.893402 0.896025 0.899061 0.901833 0.904415 0.907066 0.910486 0.913221 0.927173 0.944388 0.951041 0.953572 0.999261 1.00309 1.0066 1.01361 1.03777 1.05966 1.083 1.09018 1.0982 1.10944 1.12269 1.1591 1.16291 1.17243 1.17496 
143 0.000761111 0.00737626 0.00993971 0.0310714 0.0354477 0.0365277 0.0414598 0.0480182 0.0502144 0.050716 0.0533293 0.062479 0.065444 0.0683394 0.0698424 0.0739003 0.0770022 0.0795098 0.0814709 0.0851497 0.0867376 0.0908275 0.103198 0.104873 0.109068 0.110691 0.118955 0.121893 0.133458 0.141014 0.151949 0.158473 0.162401 0.166493 0.173299 0.181128 0.18323 0.19424 0.201154 0.205197 0.216653 0.22357 0.226837 0.229352 0.23217 0.23903 0.242389 
144 0.00159621 0.00400806 0.00632491 0.0175064 0.0191837 0.0257215 0.02958 0.0658964 0.0677681 0.161643 0.163663 0.172011 0.17324 0.209585 0.211867 0.214519 0.2163 0.218776 0.220387 0.262701 0.265604 0.277402 0.281635 0.307874 0.31024 0.313743 0.318344 0.333628 0.362948 0.365356 0.371983 0.377901 0.390163 0.394809 0.399148 0.408493 0.866977 0.881924 0.892289 0.895473 0.928661 0.93277 0.937759 0.950396 0.959006 0.965229 0.967668 
145 0.00193558 0.0060013 0.00977032 0.0181397 0.0225308 0.172706 0.182855 0.188147 0.18991 0.143612 0.147197 0.164988 0.167085 0.179051 0.180735 0.18318 0.186663 0.190213 0.192655 0.195374 0.198274 0.202169 0.205879 0.21011 0.212658 0.21552 0.221842 0.22607 0.24109 0.245044 0.270249 0.271941 0.27951 0.285674 0.290118 0.300124 0.304485 0.347452 0.357792 0.373221 0.4004 0.407172 0.410768 0.414678 0.417322 0.421569 0.428258 
146 0.0017171 0.00480329 0.00621443 0.0183031 0.020491 0.0620977 0.0667538 0.0709936 0.0724351 0.0910183 0.093468 0.102986 0.104588 0.110442 0.118182 0.120548 0.123679 0.147696 0.150448 0.153141 0.155366 0.158099 0.163524 0.172818 0.174667 0.178197 0.201711 0.204846 0.224506 0.227203 0.266226 0.268327 0.275702 0.298564 0.300686 0.338721 0.35165 0.37252 0.378247 0.386056 1.61892 1.62465 1.62733 1.63137 1.63463 1.6419 1.6448 
147 0 0 0 0 0 0 0 0 0 0 0 0 0 0 0 0 0 0 0 0 0 0 0 0 0 0 0 0 0 0 0 0 0 0 0 0 0 0 0 0 0 0 0 0 0 1 0 
148 0.00132003 0.00398431 0.00603318 0.172101 0.176573 0.0843671 0.0914966 0.0968748 0.100523 0.0807396 0.0830303 0.0952299 0.101324 0.106278 0.108213 0.112456 0.117363 0.119188 0.125461 0.132377 0.136405 0.138617 0.216653 0.22242 0.230466 0.233048 0.251578 0.256348 0.266148 0.268515 0.287046 0.292374 0.305305 0.311576 0.31667 0.331764 0.336913 0.351589 0.361409 0.367284 0.385135 0.396337 0.400952 0.409818 0.418125 0.424114 0.430066 
149 0.00187632 0.00898278 0.0108781 0.0214468 0.0262978 0.0388749 0.0588586 0.0745392 0.0791539 0.0858135 0.0927802 0.133277 0.134803 0.148136 0.151763 0.160688 0.167456 0.169722 0.173088 0.179546 0.182015 0.185115 0.189157 0.197514 0.200046 0.205665 0.210061 0.213044 0.232089 0.23737 0.254485 0.258037 0.282383 0.289385 0.292924 0.301696 0.305091 0.607318 0.618421 0.718895 0.748056 0.754488 0.760023 0.766489 0.771658 0.776844 0.784864 
150 0.0126739 0.0174634 0.01907 0.110101 0.11208 0.0787588 0.0858142 0.219609 0.233224 0.191667 0.193754 0.20248 0.203761 0.210576 0.213464 0.214872 0.217239 0.218522 0.219752 0.223919 0.225479 0.236246 0.238231 0.24003 0.253502 0.266529 0.291533 0.29665 0.321657 0.64166 0.651322 0.653305 0.887796 0.891165 0.894228 0.898508 0.901728 0.917436 0.951205 0.957358 0.964463 0.993885 1.01214 1.01522 1.01831 1.05237 1.05567 
151 0.00104716 0.00430432 0.0068211 0.0210446 0.0374279 0.0474344 0.0532928 0.0587592 0.0604538 0.0783981 0.0807079 0.129401 0.13109 0.142147 0.146903 0.148756 0.151873 0.153885 0.156805 0.16088 0.162857 0.165446 0.170235 0.17243 0.174758 0.228746 0.233196 0.235672 0.267227 0.271492 1.575 1.57714 1.58197 1.58685 1.5897 1.60275 1.6057 1.6246 1.64328 1.64973 1.69253 1.71757 1.72921 1.73199 1.73529 1.74321 1.74702 
152 0.00139069 0.0127517 0.023737 0.0373009 0.0391679 0.042183 0.0507413 0.0551511 0.0576691 0.0986764 0.101098 0.13822 0.139828 0.143687 0.144944 0.146814 0.149536 0.158345 0.160028 0.171335 0.173951 0.176696 0.180596 0.18286 0.185302 0.187779 0.191096 0.194181 0.215506 0.217945 0.224434 0.231246 0.244558 0.248785 0.69507 0.702166 0.705591 0.716266 0.722508 0.725733 0.733931 0.74079 0.743779 0.753274 0.763249 0.766764 0.787119 
153 0.0016832 0.0143247 0.0167945 0.0357876 0.0543331 0.075304 0.0822615 0.0875891 0.0893619 0.100654 0.103482 0.113075 0.114557 0.119621 0.121483 0.124576 0.439177 0.441346 0.444698 0.447011 0.449169 0.457053 0.462809 0.466231 0.46841 0.473474 0.575995 0.579835 0.592505 0.596238 0.607327 0.60941 0.629116 0.64359 0.64738 0.667938 0.670584 0.703121 0.715399 0.727683 0.855517 0.860407 0.866296 0.877601 0.880643 0.886512 0.894712 
154 0.000729587 0.0184401 0.0197238 0.0290079 0.0300045 0.0355891 2.48574 2.48921 2.49111 1.37501 1.3771 1.38386 1.38519 1.38873 1.39221 1.3944 1.39627 1.39759 1.3987 1.40011 1.40177 1.40311 1.40936 1.45961 1.48141 1.48292 1.48469 1.48702 1.49472 1.49693 1.5038 1.51423 1.51894 1.52263 1.52514 1.52928 1.5322 1.54993 1.55447 1.56064 1.56877 1.61293 1.65994 1.66265 1.67819 1.69448 1.70136 
155 0.00159537 0.0142915 0.0298639 0.0439878 0.046298 0.0490467 0.0567966 0.062511 0.0651939 0.109804 0.112526 0.145828 0.14786 0.151889 0.153278 0.15564 0.158554 0.168914 0.17065 0.183133 0.185674 0.188613 0.192834 0.195407 0.19775 0.200056 0.204385 0.20748 0.231212 0.236228 0.243406 0.251093 0.265627 0.270212 0.665856 0.673686 0.677451 0.688606 0.69506 0.698396 0.707659 0.715633 0.718716 0.728932 0.739715 0.74407 0.752258 
156 0 0 0 0 0 0 0 0 0 0 0 0 0 0 0 0 0 0 0 0 0 0 0 0 0 1 0 0 0 0 0 0 0 0 0 0 0 0 0 0 0 0 0 0 0 0 0 
157 0.000785062 0.0185014 0.0200343 0.02912 0.0302794 0.036186 2.49274 2.49554 2.49741 1.3772 1.37931 1.38618 1.38715 1.39062 1.39332 1.39498 1.39686 1.39815 1.39919 1.40039 1.40201 1.40347 1.40687 1.4572 1.47895 1.48032 1.48242 1.48491 1.49122 1.49344 1.49989 1.51012 1.51459 1.51754 1.52026 1.52446 1.52698 1.54502 1.54943 1.55573 1.56391 1.60754 1.65433 1.65687 1.67172 1.67878 1.68587 
158 0.00169912 0.00812168 0.0164122 0.0223309 0.023985 0.0265033 0.0309467 0.039252 0.0462555 0.224229 0.231017 0.237649 0.239594 0.246329 0.248964 0.250578 0.252689 0.38487 0.387017 0.388772 0.39597 0.397942 0.400093 0.407551 0.409424 0.411145 0.41375 0.415935 0.44207 0.443889 0.449439 0.451433 0.455437 0.467663 0.48229 0.500583 0.506097 0.516203 0.522345 0.524815 0.533416 0.538353 0.54136 0.544012 0.55725 0.577584 0.584728 
159 0.00138366 0.00535067 0.0063588 0.0216869 0.0228914 0.0304065 0.0385887 0.0444064 0.0456363 0.0681081 0.0701879 0.149355 0.151076 0.156532 0.167402 0.169073 0.171961 0.173257 0.175623 0.177391 0.186632 0.190356 0.194605 0.196571 0.225845 0.228722 0.257999 0.645574 0.670139 0.673786 0.680512 0.682334 0.686166 0.689328 0.69275 0.697758 0.710795 0.720056 0.724804 0.728441 0.737597 0.745953 0.748242 0.750646 0.753297 0.756496 0.763439 
160 0.00132002 0.00532315 0.00660921 0.0419139 0.0436104 0.0362761 0.0440529 0.0500809 0.0516354 0.067829 0.0700694 0.13896 0.141135 0.146244 0.155531 0.157754 0.160675 0.162098 0.164322 0.16659 0.174627 0.178312 0.188601 0.19077 0.216588 0.219314 0.246228 0.647193 0.669967 0.673854 0.681698 0.684179 0.688656 0.692609 0.696432 0.702356 0.713547 0.723217 0.728519 0.732326 0.742518 0.751118 0.753645 0.756484 0.759621 0.763411 0.769146 
161 0.00202827 0.00557062 0.00735727 0.0159975 0.0279029 0.0388955 0.0471412 0.0519512 0.0636933 0.0896179 0.43966 0.447451 0.448651 0.800815 0.802978 0.805264 0.807897 0.814074 0.815449 0.817393 0.819737 0.822403 0.82483 0.827052 0.843761 0.84576 0.849338 0.852082 0.875468 0.878454 0.88738 0.89536 0.912635 0.917274 0.920455 0.942781 0.945998 0.972186 0.981804 0.989485 0.999984 1.00691 1.01173 1.02279 1.03468 1.04025 1.04404 
162 0.00150765 0.00428883 0.00607018 0.0132664 0.0155054 0.0217979 0.0258787 0.0340671 0.0489411 0.0759655 0.0786582 0.0881858 0.0906568 1.43875 1.44096 1.44396 1.44654 1.44826 1.45055 1.45347 1.46589 1.46842 1.47067 1.47319 1.47517 1.49348 1.49633 1.49891 1.53428 1.53717 1.54848 1.55197 1.5572 1.56177 1.56465 1.57516 1.59264 1.61177 1.65486 1.66136 1.6703 1.67559 1.69032 1.69357 1.69897 1.70596 1.7096 
163 0.496095 0.273604 0.274469 0.164586 0.165373 0.106726 0.110076 0.118242 0.135931 0.124774 0.127916 0.137297 0.138113 0.143306 0.192037 0.193539 0.194914 0.196589 0.199831 0.200884 0.2025 0.220823 0.222233 0.223995 0.22752 0.230582 0.23488 0.238124 0.245096 0.266188 0.270654 0.272234 0.277831 0.280636 0.282847 0.288006 0.290809 0.302399 0.306302 0.309111 0.3184 0.355511 0.402877 0.405019 0.407733 0.41294 0.415302 
164 0.00131143 0.00394971 0.00761678 0.0167046 0.0260809 0.0235748 0.0282128 0.0490103 0.0525021 0.067344 0.0707187 0.0998022 0.104877 0.119219 0.120898 0.122772 0.132052 0.134391 0.13792 0.14497 0.147065 0.152818 0.156726 0.160999 0.170383 0.17926 0.182534 0.185679 0.197066 0.200761 0.224534 0.22877 0.23886 0.246265 0.253785 0.264794 0.312068 0.326948 0.516561 0.521348 0.532288 0.5411 0.634978 0.641614 0.647847 0.653586 0.659325 
165 0.00324237 0.00704575 0.0203628 0.0377635 0.0398448 0.0444839 0.0485684 0.052831 0.0546879 0.0708776 0.0729611 0.0819837 0.0838487 0.0885674 0.0902312 0.0923976 0.0954753 0.101236 0.105323 0.10736 0.109238 0.150532 0.155961 0.57277 0.574218 0.576248 0.583569 0.58573 0.611419 0.614851 0.622624 0.624338 0.640971 0.657784 0.660529 0.674688 0.679097 0.70589 0.71169 0.721103 0.765463 0.770393 0.773325 0.783653 0.786701 0.792854 0.796446 
166 0.00164341 0.00488664 0.0645202 0.0633516 0.0674484 0.0593506 0.0636738 0.0675018 0.0692291 0.0780435 0.0800971 0.0896143 0.0936822 0.0979046 0.0996124 0.101736 0.104694 0.111143 0.115443 0.117509 0.119354 0.129116 0.134638 0.547146 0.54859 0.550484 0.555009 0.557039 0.5827 0.584794 0.593088 0.594763 0.611365 0.627145 0.631657 0.645249 0.648217 0.674657 0.680741 0.690016 0.734205 0.742945 0.745873 0.756282 0.759321 0.76581 0.768859 
167 0.00183505 0.0044375 0.0057891 0.0151645 0.0181436 0.0265667 0.031488 0.0395801 0.0418123 0.0670535 0.0690602 0.0802275 0.0818181 0.127526 0.139176 0.141154 0.14393 0.145557 0.147078 0.157624 0.159992 0.162543 0.164736 0.166776 0.169669 0.582549 0.586079 0.588806 0.639409 0.651159 0.73172 0.733443 0.739163 0.746072 0.749376 0.755454 0.758912 0.777684 0.801692 0.807145 0.820578 0.827804 0.840633 0.843797 0.846572 0.852944 0.86267 
168 0.0179114 0.0251523 0.0268339 0.0411315 0.0432998 0.0474236 0.0565502 0.0664595 0.424685 0.304424 0.317339 0.325918 0.327244 0.500405 0.505846 0.508338 0.510528 0.518433 0.520007 0.522054 0.525693 0.529123 0.533717 0.536194 0.539668 0.544187 0.548155 0.550461 0.588775 0.606486 0.614383 0.629029 0.649763 0.659163 0.664734 0.672167 0.67798 0.699696 0.71318 0.720237 0.731109 0.770379 0.779683 0.791778 0.818055 0.823599 0.83147 
169 0.0145953 0.0199156 0.0214331 0.122786 0.124362 0.0885098 0.0957939 0.358311 0.372866 0.288584 0.290703 0.298528 0.299724 0.306679 0.30982 0.311321 0.313287 0.314645 0.315832 0.31852 0.321096 0.335361 0.337381 0.339466 0.351562 0.365264 0.392985 0.398932 0.423471 0.779882 0.789116 0.79104 0.862501 0.865738 0.868485 0.872864 0.877985 0.895887 0.910896 0.917868 0.925608 0.957298 0.966268 0.970272 0.973292 1.00531 1.00869 
170 0.00194431 0.00593567 0.0215402 0.0403909 0.0426348 0.0472754 0.0519081 0.0562211 0.0586036 0.0800915 0.0827192 0.0926717 0.0948195 0.0999269 0.101779 0.104206 0.107468 0.125716 0.129846 0.132081 0.134543 0.145398 0.151376 0.506764 0.508335 0.510419 0.515343 0.517676 0.546954 0.549229 0.557797 0.559711 0.577773 0.59789 0.602161 0.617782 0.621169 0.650387 0.656182 0.666341 0.714878 0.720358 0.723132 0.734451 0.738837 0.747248 0.751079 
171 0.000871699 0.00409608 0.00556151 0.0252003 0.0269842 0.0321368 0.0365231 0.0419107 0.0433894 0.060952 0.0629136 0.0739884 0.0757087 0.0822247 0.0841527 0.0961594 0.0987937 0.100374 0.104705 0.491759 0.49411 0.496067 0.503633 0.506327 0.508256 0.519647 0.524344 0.52641 0.547361 0.550935 0.562207 0.56523 0.571074 0.575697 0.590949 0.610002 0.622745 0.647138 0.663337 0.671898 0.682301 0.686908 0.694961 0.813896 0.817553 0.825389 0.828557 
172 0.00180729 0.00505331 0.00592103 0.018789 0.0200055 0.0266268 0.0341639 0.0381818 0.0411207 0.0575751 0.0602976 0.0663257 0.0677165 0.0763457 0.0780866 0.400731 0.403138 0.404667 0.406369 0.422668 0.42777 0.429615 0.434495 0.436466 0.438218 0.440204 0.443975 0.446521 0.457866 0.459604 0.464775 0.492562 0.49748 0.516408 0.519747 0.526258 0.531391 0.553864 0.55918 0.564767 0.57924 0.583251 0.585982 0.590121 0.629401 0.635534 0.638594 
173 0.00176433 0.00636515 0.00772055 0.0276067 0.0290573 0.0356522 0.330517 0.336941 0.339486 0.287178 0.299736 0.309052 0.310227 0.316525 0.32805 0.329681 0.331331 0.332885 0.334139 0.335552 0.337776 0.339723 0.34623 0.353365 0.804131 0.80633 0.810975 0.83808 0.846891 0.860106 0.866121 0.869089 0.875944 0.878782 0.881208 0.886537 0.889305 0.898898 0.903178 0.906027 0.913223 0.957529 0.964995 0.968579 0.973054 0.979608 0.990421 
174 0 0 0 0 0 0 0 0 0 0 0 0 1 0 0 0 0 0 0 0 0 0 0 0 0 0 0 0 0 0 0 0 0 0 0 0 0 0 0 0 0 0 0 0 0 0 0 
175 0.000767105 0.0186184 0.0198846 0.0300508 0.0310118 0.037053 2.50456 2.50756 2.50953 1.39041 1.39327 1.39973 1.40061 1.40387 1.40739 1.40904 1.41077 1.41192 1.41289 1.41402 1.41557 1.41678 1.42043 1.47085 1.52984 1.53117 1.53304 1.53743 1.54333 1.54633 1.55204 1.56234 1.56691 1.56961 1.5721 1.57595 1.57833 1.59588 1.59956 1.60565 1.61253 1.65906 1.70595 1.7085 1.72345 1.73066 1.73811 
176 0.00151665 0.00412302 0.00513788 0.0258198 0.0276979 0.130424 0.133222 0.138345 0.139657 0.102818 0.10437 0.110357 0.111466 0.114678 0.116629 0.118322 0.128862 0.132306 0.133467 0.135382 0.13683 0.150091 0.158807 0.161602 0.163782 0.198236 1.09176 1.1025 1.12419 1.13471 1.14484 1.14644 1.15126 1.15631 1.15822 1.16997 1.17343 1.18075 1.18458 1.21904 1.3652 1.36991 1.37172 1.37396 1.37613 1.37954 1.38166 
177 0.00485729 0.00780804 0.00905625 0.012894 0.0144232 0.0181537 0.0225897 0.0395609 0.0414404 0.0577472 0.0627917 0.0815121 0.0829064 0.0887743 0.0907387 0.0976206 0.101492 0.105145 0.10769 0.109736 0.118615 0.123187 0.125155 0.127231 0.131723 0.138214 0.14217 0.152935 0.167705 0.170006 0.178093 0.18082 0.188863 0.1951 0.200392 0.21487 0.220715 0.251155 0.25944 0.263498 0.284833 0.29097 0.29536 0.300539 0.304779 0.310451 0.314688 
178 0.000811376 0.00441859 0.46654 0.243439 0.265702 0.161425 0.167019 0.170572 0.172238 0.131739 0.133892 0.145064 0.16785 0.168253 0.169884 0.171349 0.174388 0.183091 0.187382 0.190019 0.191393 0.193827 0.19647 0.214944 0.216941 0.218373 0.221487 0.223134 0.232119 0.234551 0.244342 0.246473 0.25113 0.254455 0.311433 0.316453 0.318213 0.325246 0.339724 0.342046 0.349383 0.39146 0.398598 0.401711 0.404718 0.408365 0.411384 
179 0.00224629 0.00639142 0.00829125 0.017669 0.0297807 0.0419382 0.0519407 0.0577743 0.0719564 0.0977727 0.455067 0.465767 0.467075 0.567959 0.570399 0.573511 0.576612 0.582983 0.584589 0.586969 0.589474 0.592315 0.594998 0.597726 0.614643 0.617057 0.620909 0.623869 0.648645 0.652041 0.662281 0.67071 0.68739 0.692629 0.696091 0.717664 0.721088 0.775798 0.786637 0.801785 0.814102 0.821564 0.827117 0.83714 0.849685 0.855664 0.860565 
180 0.00172599 0.00810151 0.00958609 0.0199949 0.0242338 0.034748 0.0527071 0.0653013 0.0700189 0.07734 0.0829776 0.119765 0.121039 0.132561 0.135813 0.146854 0.153248 0.155185 0.158031 0.163968 0.166084 0.168658 0.172539 0.179736 0.181922 0.18706 0.190747 0.193271 0.212396 0.21706 0.231566 0.236187 0.295988 0.303574 0.307064 0.314917 0.318354 0.5742 0.58396 0.676981 0.703539 0.710024 0.714812 0.744572 0.750961 0.755584 0.761656 
181 0.00134458 0.0453072 0.0476085 0.0520382 0.0689036 0.0770974 0.0904725 0.0949604 0.0965246 0.108869 0.111501 0.120489 0.121919 0.126634 0.12856 0.131444 0.510924 0.51328 0.516744 0.518971 0.521024 0.524201 0.52906 0.532155 0.534135 0.536993 0.562309 0.564824 0.57517 0.577605 0.588309 0.590297 0.604956 0.617601 0.622286 0.642883 0.645086 0.674306 0.685526 0.694738 0.808014 0.812771 0.818296 0.826763 0.8297 0.835918 0.843499 
182 0.0017599 0.0048807 0.00864351 0.0181955 0.0706411 0.0598648 0.0644366 0.0727193 0.079245 0.135806 0.143582 0.167335 0.168872 0.188705 0.191041 0.193624 0.197589 0.202303 0.20442 0.21013 0.215857 0.218881 0.221502 0.228022 0.230373 0.243709 0.257735 0.265203 0.829786 0.836854 0.861769 0.867764 0.877134 0.894455 0.901667 0.912861 0.922409 0.940191 0.946745 0.953429 0.977284 0.982384 0.985349 0.992298 1.00201 1.00758 1.01124 
183 0.0026331 0.00677744 0.00776291 0.020066 0.0212139 0.0291019 0.0369954 0.0464326 0.0477384 0.0756808 0.0777687 0.146643 0.150668 0.15978 0.203689 0.205496 0.208193 0.209899 0.212455 0.214341 0.248191 0.251664 0.25524 0.257338 0.283791 0.287391 0.307778 0.72087 0.744837 0.748041 0.755296 0.758004 0.7619 0.765264 0.768331 0.774937 0.789816 0.799535 0.804281 0.807826 0.820994 0.834302 0.836723 0.839231 0.843563 0.848296 0.854511 
184 0.00172836 0.00433677 0.00546177 0.0167965 0.0184064 0.0255988 0.0295531 1.44567 1.44775 0.836047 0.838045 0.8466 0.849084 0.855973 0.857934 0.860266 0.862731 0.864492 0.86607 0.868293 0.883746 0.886556 0.888953 0.891359 0.893914 0.896916 0.900265 0.903457 0.916682 0.933629 0.940246 0.942576 0.96299 0.966707 0.969919 0.977095 1.0008 1.02488 1.04807 1.05537 1.06389 1.07077 1.08399 1.09819 1.10176 1.11113 1.11368 
185 0.0017536 0.00446458 0.00561172 0.015448 0.018266 0.026848 0.0314997 0.0401761 0.0424731 0.0685162 0.0703616 0.0811455 0.0828262 0.132023 0.144693 0.146804 0.149629 0.151124 0.152637 0.166335 0.168682 0.171156 0.173318 0.175164 0.178134 0.626463 0.629709 0.632274 0.680455 0.693323 0.778387 0.780129 0.785968 0.79278 0.795977 0.801989 0.805437 0.825019 0.850733 0.856327 0.868479 0.875692 0.889481 0.89278 0.895576 0.90223 0.912201 
186 0.0025871 0.00555336 0.00671684 0.0264234 0.0280369 0.0325577 0.0367659 1.46929 1.47247 0.86548 0.867328 0.87522 0.877479 0.884239 0.88637 0.888289 0.890559 0.892288 0.893766 0.896037 0.908471 0.912119 0.914585 0.917008 0.920253 0.923884 0.929271 0.932306 0.94673 0.993373 1.0001 1.00237 1.02828 1.03187 1.03496 1.0416 1.06534 1.08742 1.11094 1.11826 1.126 1.13522 1.14871 1.16298 1.16646 1.17808 1.18052 
187 0.00148441 0.00410974 0.00549275 0.0172233 0.0193426 0.0261406 0.0301559 1.44673 1.44902 0.836482 0.838421 0.847763 0.850501 0.858087 0.860037 0.862007 0.864863 0.866647 0.868309 0.870822 0.885631 0.888443 0.890996 0.893402 0.896274 0.899524 0.902854 0.905687 0.918568 0.93563 0.943519 0.946025 0.966524 0.970469 0.973984 0.980875 1.0045 1.02633 1.06955 1.07667 1.08456 1.09193 1.11529 1.12955 1.13337 1.14277 1.14546 
188 0 0 0 0 0 0 0 0 0 0 0 0 0 0 0 0 0 0 0 0 0 0 0 0 0 0 0 0 0 0 0 0 0 0 0 0 0 0 0 0 0 0 1 0 0 0 0 
189 0.00198051 0.00569472 0.0203549 0.0479732 0.0504927 0.0445835 0.110881 0.118562 0.128358 0.140123 0.142741 0.172003 0.174276 0.178685 0.199168 0.200969 0.203057 0.204682 0.206699 0.208714 0.210449 0.212803 0.223538 0.226988 0.240931 0.24305 0.247605 0.250637 0.258463 0.268107 0.30741 0.30974 0.322414 0.325755 0.329529 0.338038 0.340565 0.34939 0.360567 0.363245 0.371011 1.30713 1.31389 1.32308 1.32679 1.33431 1.33712 
190 0.49607 0.273886 0.274872 0.16549 0.166398 0.108096 0.111303 0.119846 0.137651 0.124215 0.127449 0.136823 0.137631 0.142965 0.160804 0.162254 0.163759 0.165422 0.168752 0.169815 0.171384 0.219665 0.221062 0.223998 0.226558 0.228872 0.23569 0.237998 0.244986 0.267257 0.271405 0.273013 0.27882 0.281613 0.283904 0.289263 0.293311 0.304541 0.309193 0.311887 0.318844 0.33693 0.384639 0.386858 0.389577 0.394031 0.396923 
191 0.00197715 0.00545071 0.00675245 0.0261998 0.0286585 0.0358901 0.121801 0.12838 0.13195 0.15907 0.196308 0.2056 0.206807 0.222061 0.236046 0.237763 0.239497 0.241471 0.242757 0.244256 0.246535 0.248615 0.254947 0.257993 0.710655 0.712993 0.717806 0.744681 0.755608 0.768733 0.774949 0.777802 0.785772 0.788811 0.791288 0.79834 0.801202 0.811707 0.816473 0.819521 0.827485 0.861275 0.865168 0.869491 0.873797 0.880309 0.88996 
192 0.00281261 0.00572867 0.00677083 0.0332682 0.0350981 0.126404 0.129899 0.146097 0.148456 0.110757 0.112404 0.124224 0.12532 0.128986 0.131154 0.132685 0.142934 0.144431 0.145565 0.147469 0.149579 0.163552 0.171175 0.173242 0.178535 0.202569 1.0227 1.07059 1.0968 1.14175 1.14925 1.15083 1.16054 1.16393 1.16605 1.17496 1.17877 1.18595 1.19053 1.22212 1.25833 1.26515 1.26745 1.26974 1.27194 1.27771 1.28032 
193 0.000988357 0.00404522 0.00682222 0.0222757 0.0391 0.047358 0.0532753 0.0595827 0.0613862 0.0771114 0.079484 0.122435 0.124371 0.132704 0.136556 0.138381 0.141967 0.144022 0.147086 0.150475 0.152415 0.155011 0.160492 0.162682 0.165449 0.191681 0.196253 0.198599 0.225986 0.229207 1.53126 1.53357 1.53864 1.54356 1.54671 1.55872 1.56178 1.58 1.61218 1.61848 1.6609 1.68658 1.7082 1.7112 1.71475 1.72248 1.72645 
194 0.00167839 0.00491755 0.00632854 0.0172957 0.0197442 0.0550422 0.0609972 0.0659655 0.0675257 0.0880442 0.0904377 0.101878 0.103373 0.109234 0.116878 0.119868 0.123652 0.147062 0.149537 0.15212 0.154008 0.156599 0.161479 0.17072 0.172553 0.17628 0.199306 0.202436 0.222378 0.224776 0.26156 0.263536 0.275404 0.296411 0.298554 0.314247 0.327249 0.37561 0.38108 0.398533 1.64178 1.64711 1.64968 1.65298 1.65599 1.66317 1.66632 
195 0.00112875 0.0331416 0.0351843 0.0313528 0.0338203 0.0354899 0.0422007 0.0476468 0.0494303 0.0681567 0.0702492 1.15152 1.15323 1.15873 1.16131 1.16358 1.16743 1.16903 1.17421 1.17712 1.17938 1.29914 1.3015 1.30398 1.30714 1.31014 1.31443 1.33464 1.36091 1.36324 1.39769 1.39943 1.40564 1.40988 1.42468 1.43127 1.43417 1.47368 1.49756 1.51125 1.52201 1.55127 1.56125 1.56469 1.5673 1.57199 1.57593 
196 0.0173864 0.0248578 0.0256648 0.0305602 0.0317125 0.0369691 0.0453543 0.0512028 0.0529026 0.124997 0.127596 0.136624 0.13843 0.146303 0.498723 0.502243 0.50453 0.507255 0.509145 0.511424 0.515375 0.518109 0.52123 0.523372 0.543434 0.558364 0.562194 0.579686 0.595249 0.598539 0.612512 0.61485 0.619347 0.625156 0.627211 0.643062 0.64758 0.663418 0.668047 0.673421 0.732842 0.806675 0.810603 0.813326 0.817586 0.838081 0.842765 
197 0.00131769 0.0129536 0.0662161 0.0626722 0.0664375 0.05838 0.0655794 0.0700374 0.072391 0.107533 0.109912 0.146921 0.150502 0.15384 0.155113 0.157015 0.15966 0.168993 0.170825 0.182219 0.18443 0.187063 0.190952 0.194701 0.196689 0.19865 0.201973 0.204728 0.223885 0.226517 0.233224 0.240042 0.253313 0.257312 0.704645 0.711428 0.714785 0.724593 0.731217 0.734168 0.742264 0.752554 0.755728 0.765181 0.775078 0.778648 0.786158 
198 0.0157982 0.0208106 0.0216123 0.0266319 0.0277617 0.0324512 0.0408648 0.046905 0.0484648 0.11688 0.119213 0.128098 0.130126 0.136765 0.544034 0.547166 0.549295 0.551759 0.55348 0.555942 0.559205 0.561572 0.564893 0.567065 0.585527 0.599561 0.602951 0.6185 0.633594 0.636841 0.651044 0.653048 0.657555 0.663275 0.665166 0.681425 0.686015 0.702717 0.707428 0.713118 0.757795 0.825696 0.829525 0.832163 0.836205 0.862703 0.866099 
199 0 0 0 0 0 0 0 0 0 0 0 0 0 0 0 0 0 0 0 0 0 0 0 0 0 0 0 0 0 0 0 0 0 0 0 0 0 0 0 1 0 0 0 0 0 0 0 
200 0.00201089 0.00518607 0.00607518 0.0170635 0.0182407 0.025486 0.0302701 0.0348763 0.0367973 0.0543717 0.0568056 0.063477 0.0647562 0.0731735 0.0749968 0.481034 0.483541 0.485135 0.486961 0.503173 0.507049 0.50912 0.513234 0.515123 0.517042 0.519395 0.522975 0.525958 0.536612 0.538358 0.543533 0.554003 0.558653 0.577518 0.580569 0.587357 0.591139 0.612918 0.618169 0.623171 0.634822 0.638699 0.641322 0.645338 0.659929 0.666954 0.670011 
201 0.00338352 0.00793767 0.0104544 0.0182965 0.0198206 0.0250588 0.0295704 0.0340527 0.0355303 0.0538919 0.0561505 0.0961535 0.100402 0.108786 0.110724 0.112871 0.120816 0.123567 0.167027 0.172472 0.178554 0.181858 0.186072 0.191136 0.193141 0.195057 0.207961 0.211277 0.222591 0.22484 0.239225 0.241036 0.249078 0.256561 0.259334 0.292054 0.294573 0.3097 0.320533 0.325517 0.341236 0.348243 0.353761 0.35931 0.362235 0.367346 0.375983 
202 0.00199773 0.00518757 0.00670253 0.0259437 0.0275558 0.0340989 0.099119 0.105605 0.107892 0.138603 0.148889 0.159626 0.160952 0.16701 0.18124 0.18286 0.184693 0.186434 0.188044 0.189614 0.192096 0.194355 0.200765 0.203474 0.647234 0.64965 0.655044 0.685848 0.695275 0.708498 0.714996 0.717084 0.723772 0.72685 0.729545 0.735338 0.738374 0.747663 0.752593 0.755367 0.764074 0.797041 0.800417 0.803914 0.807072 0.812904 0.823705 
203 0.0015317 0.005408 0.00651453 0.0192731 0.0204701 0.0291892 0.0365994 0.0467903 0.0480599 0.0789939 0.0810153 0.154695 0.156532 0.165367 0.178448 0.180108 0.182892 0.184349 0.186673 0.189391 0.200361 0.204919 0.208492 0.212205 0.23691 0.239858 0.266683 0.711032 0.73645 0.739874 0.746542 0.748787 0.75341 0.756692 0.760069 0.765481 0.816257 0.826045 0.83122 0.834778 0.84744 0.855623 0.858124 0.861337 0.864684 0.868223 0.87481 
204 0.00110501 0.0307207 0.0327926 0.0304608 0.0341318 0.036676 0.0434134 0.0488394 0.0506151 0.06941 0.0715622 1.39782 1.39951 1.40523 1.40807 1.41031 1.41411 1.41574 1.42041 1.42336 1.42567 1.45001 1.45264 1.45505 1.45832 1.46317 1.46766 1.48958 1.51686 1.51931 1.66228 1.66408 1.67018 1.67444 1.68809 1.69677 1.69978 1.73756 1.76093 1.77402 1.78738 1.81684 1.82667 1.83007 1.83278 1.83783 1.84173 
205 0.0170388 0.0231395 0.0240132 0.0297238 0.0312399 0.0376948 0.0472933 0.0539517 0.055829 0.127651 0.130416 0.142273 0.144064 0.151627 0.504124 0.507725 0.51032 0.513077 0.515224 0.517914 0.521406 0.523915 0.527119 0.529771 0.549825 0.565209 0.569142 0.58619 0.601597 0.605171 0.620477 0.622563 0.628452 0.634201 0.636293 0.654069 0.658582 0.697632 0.702804 0.716437 0.776265 0.848601 0.852773 0.855654 0.859531 0.8791 0.883013 
206 0.00170679 0.00480338 0.0179886 0.0346027 0.0364803 0.040446 0.0441695 0.0476783 0.049312 0.0638052 0.0656844 0.0740981 0.0758568 0.079998 0.0814768 0.083459 0.0861363 0.0926333 0.0964767 0.0983515 0.100078 0.112451 0.117685 0.525478 0.526733 0.528471 0.532966 0.534839 0.559501 0.561507 0.56872 0.570261 0.586357 0.601847 0.604483 0.617635 0.620494 0.646429 0.651118 0.660221 0.703302 0.707779 0.710047 0.720112 0.722956 0.728536 0.731377 
207 0.00184701 0.00459087 0.00601768 0.0164477 0.01963 0.0271768 0.0318594 0.04264 0.0451387 0.0700718 0.0721259 0.0843159 0.087299 0.124008 0.135664 0.137766 0.141268 0.142894 0.144632 0.157811 0.160116 0.162846 0.165116 0.167061 0.170508 0.581715 0.585272 0.587913 0.64 0.655647 0.727419 0.729411 0.736076 0.743218 0.746934 0.753341 0.756995 0.776005 0.818161 0.823659 0.835947 0.843384 0.865242 0.868798 0.871944 0.878789 0.888415 
208 0.0219547 0.02819 0.0298068 0.0431346 0.0457556 0.04919 0.0580385 0.0682342 0.420262 0.308245 0.32146 0.330772 0.332006 0.393779 0.398786 0.401306 0.403521 0.411587 0.413153 0.415467 0.418518 0.422186 0.426749 0.429616 0.433169 0.437306 0.442066 0.4449 0.532249 0.551264 0.559862 0.574746 0.595895 0.607511 0.613253 0.620602 0.625687 0.64741 0.658954 0.666058 0.678436 0.712425 0.721071 0.733395 0.760073 0.765545 0.773615 
209 0.00168235 0.00487665 0.00756291 0.0147295 0.0164244 0.0228294 0.0270484 0.0332783 0.0467943 0.0762329 0.08056 0.0908682 0.0933882 1.32054 1.32299 1.32596 1.32877 1.33076 1.33567 1.33872 1.3509 1.35442 1.35702 1.36005 1.36171 1.37784 1.38197 1.38467 1.41836 1.4216 1.43365 1.43708 1.4424 1.44738 1.44973 1.47734 1.49335 1.51215 1.5267 1.53304 1.54373 1.54946 1.5552 1.55859 1.56391 1.57074 1.57488 
210 0.00105441 0.004111 0.00671769 0.0223052 0.0387639 0.0480744 0.0545371 0.059836 0.061628 0.0796714 0.081947 0.122648 0.124322 0.135109 0.14042 0.142249 0.145263 0.147253 0.150137 0.15387 0.155844 0.15824 0.163581 0.165791 0.168153 0.226966 0.231563 0.233947 0.268949 0.27313 1.58057 1.58277 1.5876 1.59243 1.59515 1.60663 1.6096 1.628 1.64491 1.6512 1.69422 1.72811 1.73852 1.74131 1.74476 1.75276 1.75642 
211 0.00224546 0.00620127 0.0173634 0.0307494 0.0326713 0.0362515 0.101025 0.109153 0.11885 0.133813 0.136987 0.165865 0.1677 0.172988 0.193306 0.194958 0.197217 0.19903 0.20113 0.203124 0.205073 0.207737 0.21165 0.214916 0.224612 0.22672 0.233379 0.235863 0.243934 0.255906 0.288641 0.290856 0.303257 0.306955 0.310424 0.33581 0.338154 0.347326 0.35854 0.361239 0.369501 1.29689 1.30367 1.31249 1.31602 1.32355 1.3263 
212 0.00161914 0.00556336 0.00670364 0.0195219 0.0206953 0.0290111 0.0367246 0.043028 0.0442391 0.0680789 0.0701176 0.142809 0.144943 0.151196 0.164314 0.165984 0.171533 0.172906 0.177709 0.179702 0.190735 0.19441 0.198104 0.200407 0.227451 0.230293 0.257578 0.694671 0.718469 0.721904 0.728821 0.730656 0.734802 0.738209 0.74138 0.746954 0.762243 0.771793 0.776892 0.780529 0.790432 0.799008 0.801501 0.80417 0.806928 0.81036 0.816652 
213 0.00179382 0.0059918 0.00746258 0.0182946 0.0201875 0.0235584 0.0289482 0.0340401 0.0360124 0.0483185 0.0557215 0.0658632 0.0679615 0.0802131 0.083645 0.0861472 0.0920767 0.0961533 0.0990993 0.105295 0.11164 0.115689 0.120664 0.124897 0.127526 0.130335 0.138559 0.141307 0.153692 0.162775 0.19524 0.199532 0.207733 0.217864 0.221116 0.421443 0.424611 0.439159 0.450094 0.454069 0.484028 0.493101 0.498458 0.504117 0.510933 0.516136 0.522356 
214 0.491361 0.269391 0.270202 0.160959 0.161669 0.103246 0.106069 0.113815 0.131272 0.11606 0.119034 0.127761 0.128456 0.133174 0.150713 0.152011 0.153232 0.154737 0.157846 0.158744 0.160122 0.178158 0.179366 0.180983 0.183335 0.185351 0.189391 0.191441 0.197445 0.218176 0.22174 0.223183 0.228461 0.230905 0.232983 0.237163 0.239672 0.250035 0.253615 0.256014 0.26192 0.279433 0.409535 0.411503 0.413954 0.417729 0.419842 
215 0 0 0 0 0 0 0 0 0 0 0 0 0 0 0 0 0 0 0 0 1 0 0 0 0 0 0 0 0 0 0 0 0 0 0 0 0 0 0 0 0 0 0 0 0 0 0 
216 0.00197732 0.0134197 0.0160241 0.0347256 0.0520755 0.0633616 0.0704772 0.0753921 0.0773133 0.0915494 0.0944809 0.104374 0.105966 0.111563 0.113574 0.116996 0.406959 0.409554 0.412935 0.415334 0.417679 0.421508 0.427448 0.431282 0.433491 0.436789 0.468317 0.471916 0.485514 0.488315 0.49978 0.502123 0.517892 0.54532 0.549123 0.570666 0.573437 0.603186 0.61601 0.625612 0.726286 0.731372 0.737313 0.746475 0.750006 0.75661 0.764623 
217 0.0213013 0.0274465 0.0294678 0.0366151 0.0387594 0.0451517 0.049543 0.0584867 0.0613955 0.0824687 0.0853687 0.092375 0.0936533 0.100686 0.103025 0.104754 0.108044 0.10982 0.112238 0.11413 0.116328 0.552152 0.55432 0.569867 0.572167 0.575564 0.608734 0.611681 0.623075 0.64011 0.646781 0.648647 0.654587 0.658575 0.660934 0.674892 0.6934 0.703034 0.71434 0.717706 0.729889 0.735495 0.742777 0.745637 0.748656 0.756514 0.76571 
218 0.0028951 0.00596117 0.0192927 0.030053 0.0321901 0.0344969 0.0941984 0.101681 0.110521 0.123311 0.126327 0.153375 0.155215 0.159985 0.178414 0.17982 0.181643 0.183283 0.185179 0.186736 0.188296 0.190708 0.194202 0.197202 0.206391 0.208477 0.212351 0.214931 0.222588 0.233316 0.268855 0.270641 0.282029 0.285085 0.289216 0.29817 0.300508 0.308873 0.319322 0.321814 0.329179 1.1795 1.18571 1.19377 1.19668 1.20355 1.20611 
219 0.0128447 0.0190983 0.0198985 0.0259265 0.027168 0.0326592 0.0414674 0.0476742 0.0491411 0.118533 0.120862 0.129935 0.131963 0.138621 0.546458 0.549543 0.551754 0.554254 0.555983 0.558426 0.561736 0.56407 0.567523 0.569664 0.588635 0.60288 0.606318 0.621983 0.637086 0.640268 0.662337 0.664378 0.668795 0.674384 0.676278 0.692657 0.697335 0.713774 0.718554 0.724158 0.771715 0.827741 0.831363 0.833955 0.838017 0.862798 0.866297 
220 0.00152155 0.00467195 0.00626015 0.0138712 0.0157334 0.0232146 0.0286951 0.0383399 0.0521388 0.0796982 0.0827057 0.0928232 0.0970582 1.33822 1.34062 1.3442 1.34656 1.34857 1.3513 1.35415 1.38947 1.3919 1.39433 1.39723 1.39889 1.4125 1.41562 1.41915 1.45448 1.45732 1.46741 1.47144 1.47749 1.482 1.48439 1.49645 1.51272 1.55624 1.5724 1.58745 1.59775 1.60278 1.60888 1.61218 1.61859 1.62546 1.62966 
221 0.00311611 0.00717197 0.00954414 0.0168617 0.0181989 0.023232 0.0271884 0.0344726 0.0358372 0.164031 0.165771 0.202496 0.206337 0.213711 0.216177 0.218107 0.223974 0.227543 0.267516 0.272238 0.277574 0.280469 0.284264 0.288855 0.290669 0.292499 0.303824 0.306957 0.322504 0.324112 0.335374 0.336859 0.344041 0.351023 0.354562 0.36849 0.372897 0.386366 0.395826 0.400267 0.413289 0.419283 0.424113 0.429084 0.431611 0.436566 0.444281 
222 0.00240487 0.00441145 0.00606694 0.0207251 0.0226706 0.0255112 0.033524 0.0608255 0.0683438 0.0820156 0.0888232 0.0984695 0.100506 0.108052 0.110645 0.113255 0.120727 0.122589 0.125481 0.1282 0.130794 0.132932 0.139149 0.14594 0.149224 0.151335 0.155065 0.157322 0.17747 0.179943 0.18768 0.193954 0.538528 0.54587 0.554656 0.563849 0.575231 0.592219 0.605104 0.61069 0.624082 0.643191 0.649047 0.897431 0.906755 0.920147 0.925276 
223 0.00163878 0.00486791 0.00630499 0.0241681 0.0257164 0.0316209 0.0949372 0.101237 0.103581 0.130208 0.141603 0.150608 0.15184 0.157581 0.167941 0.169672 0.171342 0.173253 0.174541 0.17599 0.178048 0.1802 0.186141 0.188584 0.598077 0.600126 0.605069 0.629904 0.638555 0.65104 0.657086 0.659361 0.665471 0.668202 0.670874 0.676145 0.678632 0.686898 0.691167 0.693616 0.700597 0.737264 0.740453 0.743647 0.746668 0.752174 0.761901 
224 0.00140154 0.00394043 0.00476892 0.0159186 0.0172254 0.019223 0.0453567 0.049946 0.0613184 0.0720649 0.0778038 0.0831614 0.0848098 0.0935533 0.0952071 0.101592 0.103607 0.105267 0.106477 0.108728 0.11779 0.119514 0.124022 0.126539 0.128582 0.130204 0.133199 0.13518 0.15781 0.160127 0.169097 0.403537 0.412222 0.421173 0.427771 0.452481 0.476646 0.488141 0.49679 0.500497 0.540897 0.545858 0.551072 0.556648 0.864375 0.870473 0.874551 
225 0.00132559 0.00360041 0.00502666 0.0147565 0.0162097 0.0177748 0.0352655 0.0397398 0.0439496 0.0514089 0.0535009 0.0626499 0.0641257 0.0691889 0.0706037 0.0724221 0.077667 0.0820933 0.0851688 0.0871343 0.0936276 0.0970915 0.100534 0.102555 0.109057 0.116455 0.119909 0.124702 0.132483 0.134716 0.14172 0.144379 0.150537 0.155799 0.163951 0.172417 0.174693 0.192237 0.203017 0.208012 0.216385 0.220455 0.226071 0.230169 0.234419 0.238053 0.355893 
226 0.0011891 0.0029594 0.00402249 0.0111765 0.0122544 0.0139596 0.0282435 0.0319489 0.0355952 0.0421833 0.0440522 0.051141 0.0523086 0.0564248 0.0576909 0.0591787 0.0622998 0.065676 0.0679391 0.0693968 0.0747973 0.0777485 0.0803619 0.0819822 0.091992 0.0968252 0.0995437 0.10358 0.109892 0.111933 0.117429 0.119526 0.125722 0.129967 0.135566 0.143741 0.145603 0.159586 0.167674 0.171759 0.178231 0.181941 0.186185 0.190633 0.193991 0.196926 0.375534 
227 0.0023651 0.0054514 0.00638327 0.0185697 0.0198462 0.0264952 0.0313727 0.0352377 0.037493 0.0545103 0.0569005 0.0631506 0.0644115 0.0726538 0.074386 0.481879 0.484687 0.486494 0.488281 0.501752 0.504959 0.50686 0.51152 0.513883 0.515616 0.517585 0.521482 0.524525 0.53618 0.537926 0.543152 0.553897 0.558538 0.590018 0.592881 0.599653 0.60306 0.625529 0.631506 0.637098 0.650964 0.654908 0.657755 0.6615 0.676447 0.682425 0.685526 
228 0.00281312 0.00615173 0.00749788 0.0182527 0.0203018 0.0627055 0.0674716 0.0717518 0.073135 0.0961358 0.0981686 0.107396 0.108997 0.114239 0.151046 0.153513 0.156218 0.179832 0.182443 0.184731 0.186699 0.189198 0.194029 0.202975 0.206359 0.210884 0.233972 0.23843 0.258132 0.26039 0.292457 0.294332 0.299995 0.323336 0.325354 0.340671 0.353636 0.374389 0.379423 0.387219 1.64319 1.65306 1.65551 1.65839 1.66134 1.66984 1.67251 
229 0.00156748 0.0104947 0.0118407 0.0200178 0.022522 0.0255521 0.0313917 0.0355887 0.0385355 0.0518886 0.0831229 0.0917264 0.0934053 0.114297 0.122098 0.129276 0.131534 0.134212 0.137947 0.139781 0.146406 0.152432 0.155831 0.157713 0.160993 0.162782 0.167224 0.173401 0.19574 0.198145 0.20411 0.209673 0.216096 0.222831 0.226598 0.235326 0.237833 0.250182 0.254924 0.25906 0.268616 0.274606 0.27694 0.281717 0.289223 0.294363 0.310288 
230 0 0 0 0 0 0 0 0 0 0 0 0 0 0 0 0 0 0 0 0 0 0 0 0 0 0 0 0 0 0 0 1 0 0 0 0 0 0 0 0 0 0 0 0 0 0 0 
231 0.00144901 0.0123987 0.0146466 0.0327222 0.0489545 0.0599405 0.0675824 0.0741508 0.0763397 0.0887122 0.0918678 0.102547 0.103923 0.109275 0.111155 0.114533 0.457561 0.459591 0.462529 0.464943 0.466939 0.470348 0.476016 0.479838 0.481865 0.484926 0.514469 0.517097 0.528948 0.531562 0.542116 0.544448 0.59784 0.61101 0.616282 0.634371 0.637133 0.689869 0.700557 0.718251 0.830929 0.836335 0.84146 0.872309 0.875689 0.881208 0.888849 
232 0.00133756 0.00389634 0.00546915 0.0152777 0.0169597 0.0201399 0.0339001 0.0447488 0.0465511 0.0758447 0.0788832 0.0899913 0.0963093 0.104703 0.116121 0.123571 0.126799 0.130051 0.133163 0.169045 0.17303 0.176197 0.183787 0.187477 0.191357 0.195854 0.199406 0.201755 0.237644 0.241926 0.257863 0.262226 0.272181 0.283721 0.287289 0.296087 0.306879 0.318552 0.32845 0.332337 0.354311 0.372435 0.37751 0.386568 0.397252 0.479694 0.484081 
233 0.00141432 0.00392652 0.00543969 0.0120984 0.0136107 0.0199952 0.0236442 0.0320655 0.045388 0.0831167 0.0855962 0.0929071 0.094903 1.34278 1.34487 1.34737 1.34919 1.35087 1.35299 1.35605 1.36741 1.3703 1.37238 1.37644 1.37789 1.39394 1.39673 1.39999 1.43377 1.43633 1.44547 1.44871 1.45367 1.45762 1.4598 1.47072 1.51995 1.53745 1.55314 1.55894 1.56949 1.57397 1.57986 1.58316 1.5882 1.59462 1.59764 
234 0.00131835 0.0130646 0.0273349 0.0398907 0.0420395 0.04452 0.0516728 0.0564557 0.0589189 0.0997025 0.102201 0.140017 0.141882 0.145584 0.146861 0.148951 0.151609 0.16096 0.162576 0.174024 0.176317 0.179196 0.183136 0.185486 0.187572 0.189647 0.193433 0.1964 0.218171 0.221001 0.227734 0.234761 0.247889 0.252074 0.700623 0.707654 0.711046 0.721019 0.727006 0.730088 0.738715 0.745833 0.748673 0.758035 0.767929 0.77178 0.780378 
235 0.0011917 0.00408645 0.00544323 0.0168311 0.0180495 0.0246894 0.03058 0.0665655 0.0687565 0.0971352 0.0992292 0.110344 0.137567 0.178019 0.180836 0.183292 0.185689 0.190692 0.197885 0.200361 0.56162 0.563679 0.567898 0.570153 0.572491 0.574701 0.579015 0.590259 0.614206 0.616237 0.62412 0.634653 0.639623 0.644287 0.64741 0.662418 0.666876 0.67659 0.682688 0.685746 0.695771 0.700693 0.703648 0.707116 0.724963 0.730974 0.741217 
236 0.00184242 0.00452819 0.00695141 0.0172894 0.0189799 0.0271543 0.0314729 0.0823583 0.0843762 0.18512 0.187369 0.20103 0.202312 0.24126 0.244638 0.246625 0.248504 0.251344 0.252878 0.26548 0.269261 0.282262 0.285942 0.307287 0.311569 0.314393 0.321051 0.371875 0.403646 0.406285 0.413003 0.41935 0.432717 0.43781 0.44142 0.450366 0.874326 0.88941 0.899411 0.902384 0.94738 0.952133 0.956973 0.968706 0.978008 0.984383 0.987164 
237 0.00169466 0.00458661 0.00616812 0.0147183 0.0207939 0.0279735 0.0325893 0.0405078 0.0464444 0.112088 0.117033 0.139775 0.141189 0.159153 0.162322 0.164781 0.167138 0.171451 0.173381 0.180118 0.186217 0.189076 0.191443 0.197431 0.201699 0.21414 0.229106 0.272519 0.752933 0.759606 0.778071 0.78367 0.791202 0.8073 0.815506 0.82587 0.835785 0.851195 0.857279 0.863089 0.884781 0.889589 0.892272 0.897736 0.906843 0.912542 0.91631 
238 0.00163476 0.00393902 0.00617511 0.0165936 0.0182486 0.0241907 0.0305686 0.0775552 0.0803645 0.169071 0.171438 0.178807 0.180027 0.215643 0.217768 0.219921 0.221641 0.224069 0.225387 0.234543 0.237907 0.249552 0.253513 0.279513 0.281751 0.284207 0.288378 0.300406 0.329271 0.331594 0.337755 0.360953 0.373584 0.379063 0.382713 0.391142 0.853736 0.867451 0.8782 0.880942 0.916185 0.920252 0.925545 0.936339 0.969277 0.975319 0.977754 
239 0.00144142 0.00403281 0.00549874 0.0146906 0.0164251 0.0228291 0.0419888 0.0553332 0.0570216 0.0841356 0.0871718 0.0980256 0.104344 0.112707 0.12489 0.131705 0.135935 0.141133 0.144039 0.149255 0.153197 0.157115 0.166945 0.171357 0.175143 0.178961 0.184218 0.186621 0.222217 0.226274 0.244499 0.248707 0.257571 0.270947 0.273382 0.282337 0.29309 0.304648 0.313921 0.317818 0.43172 0.444454 0.44933 0.455166 0.46548 0.555311 0.559308 
240 0.00135959 0.00544158 0.00894293 0.0183751 0.0257878 0.0258095 0.0312044 0.0527341 0.057207 0.0647989 0.0960451 0.124347 0.129289 0.148473 0.150397 0.152364 0.161564 0.16432 0.167928 0.174354 0.176886 0.18102 0.185231 0.187583 0.197562 0.206584 0.210435 0.212775 0.22442 0.228651 0.250672 0.255122 0.266465 0.274324 0.281845 0.310727 0.315946 0.330591 0.506184 0.510915 0.521499 0.530951 0.618153 0.625687 0.632285 0.638195 0.644267 
241 0 0 0 0 0 0 0 0 0 0 0 0 0 0 0 0 0 0 0 0 0 0 0 0 0 0 0 0 0 0 0 0 0 0 0 0 0 0 1 0 0 0 0 0 0 0 0 
242 0.00181169 0.00458835 0.00585155 0.0167084 0.0206133 0.0292948 0.0341429 0.0434072 0.0457518 0.0712166 0.0731058 0.0862905 0.0878823 0.133822 0.145999 0.148046 0.150861 0.152405 0.154008 0.164977 0.167306 0.169863 0.172254 0.174144 0.177152 0.590817 0.594343 0.596942 0.645117 0.660066 0.841867 0.843646 0.849815 0.856521 0.859626 0.86602 0.86938 0.888966 0.91342 0.919101 0.933798 0.943307 0.956814 0.959959 0.962816 0.969797 0.979376 
243 0.0162171 0.0200827 0.0217776 0.112785 0.114383 0.0808891 0.0882458 0.205121 0.218701 0.190586 0.192746 0.200513 0.201601 0.208353 0.211323 0.212673 0.214529 0.215895 0.217136 0.219458 0.221121 0.232494 0.234545 0.236479 0.249461 0.262022 0.287797 0.293583 0.318742 0.729369 0.738299 0.740021 0.791809 0.794938 0.797638 0.801845 0.805049 0.821034 0.832234 0.838509 0.846511 0.876144 0.883033 0.886351 0.889047 0.922893 0.926287 
244 0.0012102 0.00474488 0.00602261 0.0187726 0.0200912 0.0269442 0.0367812 0.073801 0.0771462 0.106619 0.109366 0.119139 0.146661 0.188723 0.192514 0.196174 0.198427 0.203521 0.208447 0.210958 0.481565 0.48391 0.488563 0.490825 0.493541 0.495891 0.500052 0.514358 0.541221 0.543443 0.551339 0.57626 0.583121 0.588573 0.592451 0.608096 0.614252 0.624484 0.63093 0.634198 0.64732 0.652629 0.655842 0.660937 0.708002 0.714568 0.725829 
245 0.00103685 0.00429876 0.00685347 0.0208887 0.0375429 0.0474531 0.0535974 0.0588337 0.0608344 0.0823346 0.0849528 0.13434 0.136024 0.144775 0.149144 0.151082 0.154106 0.156339 0.1593 0.16273 0.164966 0.167555 0.172411 0.175019 0.177257 0.202627 0.207584 0.210391 0.293393 0.296833 1.57846 1.58179 1.58672 1.59242 1.59559 1.60895 1.61243 1.63097 1.6467 1.65314 1.69714 1.72365 1.73336 1.73633 1.74138 1.74982 1.75301 
246 0.00125274 0.00424203 0.0058198 0.0175312 0.019074 0.0269781 0.0340993 0.080834 0.0832774 0.112161 0.114707 0.125013 0.153597 0.190847 0.19402 0.196737 0.199123 0.204705 0.209648 0.212244 0.512825 0.515169 0.519385 0.521743 0.524378 0.526877 0.531355 0.543699 0.574045 0.576627 0.585651 0.59814 0.603685 0.608851 0.612512 0.630247 0.635578 0.646141 0.652982 0.656324 0.668129 0.675229 0.678396 0.682267 0.703749 0.710492 0.721476 
